625 50
the 1.359029 -0.395031 -0.352503 -0.756740 0.418225 -0.270791 -0.586194 0.209347 0.419401 0.318720 -0.443834 -0.529691 -0.740106 -0.559041 -0.509915 0.218316 -0.906668 0.779501 -0.415193 0.704030 -0.231776 -0.180922 0.193323 0.754668 -0.460690 0.656705 -0.045452 -0.507415 -0.513928 0.122422 0.913219 -1.312933 0.164406 -1.107483 -0.928272 -0.283473 -0.756478 -0.038188 -0.992184 0.452497 -0.012600 0.056685 0.121068 0.210907 -0.374532 0.308289 0.278181 1.158355 -1.219200 0.223511
of 0.898859 -0.652084 -0.318199 0.164798 0.904839 -0.002176 0.495648 -0.849207 0.855869 0.463347 1.145740 -1.237892 -0.225706 0.368683 -0.072520 1.314165 -0.673124 0.740644 0.586902 0.773712 0.354046 1.069163 0.758832 0.799047 -0.842488 1.051840 0.136745 0.350832 -0.452709 -0.226809 0.246773 -0.141070 -0.413705 -0.002975 -0.474252 -0.227311 0.586640 -0.098815 -1.085096 -0.177868 -1.208070 -0.228725 -0.305611 -0.193535 -0.127597 -0.824187 -0.358857 0.512971 -1.178251 0.735261
and -0.758412 0.092087 -0.307174 -0.566971 0.182509 1.420672 -0.965791 -0.588135 -0.595707 -0.380308 1.183498 0.093999 -0.136603 -0.582744 -0.370242 -1.295696 0.711368 0.793309 0.845712 1.193478 0.145893 0.358433 0.927427 0.204855 -0.200473 0.063187 -0.170805 -0.699065 0.207724 -0.032373 0.741533 0.667354 -0.012055 -0.541943 -0.931192 0.573892 0.627283 0.736309 -1.079434 -0.452114 -0.629511 0.727414 -0.199580 0.651139 0.143651 -0.617683 -0.171423 -0.026453 -0.513313 0.674877
one -0.692080 -0.518831 0.398028 -0.569515 2.330281 1.490555 -3.043069 -0.996448 1.126786 -0.465970 -1.061922 1.006283 -0.561940 -0.153202 -0.745019 1.874759 -0.824599 -1.495993 2.011622 -2.934561 1.102051 -3.072823 -1.025078 -0.588761 -0.060422 -1.361564 -0.621661 -1.090944 0.571181 -1.300846 -0.753929 2.088870 -2.227926 -0.131699 -0.052750 -0.870912 0.741388 -1.944400 0.853721 2.265502 0.015282 0.407373 -0.063300 -2.380855 -0.298686 -1.002682 0.068188 -2.761214 -0.936120 -2.040239
in 0.490923 -0.705869 0.329713 -0.213409 0.974065 -0.495991 -0.665863 -0.134656 -0.400829 -0.303442 1.866663 0.608302 0.702540 0.540295 -0.063763 0.517176 -0.811363 -0.216628 0.918767 -0.972099 0.719824 -0.384052 -0.482219 1.078739 -0.484071 0.646962 -0.945649 -0.119402 0.282556 -1.034329 -0.270336 0.278358 -0.287262 0.157620 -0.751298 0.269610 0.331915 -0.340392 0.080249 0.451608 0.016845 0.236689 -0.705392 -0.045266 0.529919 -0.824593 -0.716255 -0.418638 -1.346979 0.300379
a 0.106415 0.896391 0.025198 -1.296791 0.321148 -1.222771 1.665150 -0.820860 1.020069 0.209897 -0.760910 0.377270 -0.934753 0.453672 0.528923 -1.262749 -0.060626 -0.460913 0.029155 -0.081910 0.126456 0.205913 0.981016 0.828256 0.542455 2.027426 0.167769 -1.160732 -0.359726 2.100415 0.327887 -1.466403 1.045592 0.892031 -0.079615 1.005202 -0.678304 0.794704 -0.359572 0.382561 1.110436 -0.201751 -0.103677 0.019763 -2.547139 0.512151 0.096939 0.073654 -0.246222 0.001460
to 1.523648 -0.162082 0.391722 0.866277 0.148636 -1.799629 0.140077 -0.009896 -1.793681 -0.434306 0.003692 -0.650054 1.354828 0.604245 -1.103666 -2.065388 1.704397 0.389611 0.963642 -0.339762 0.060281 0.496002 -1.115866 -0.056589 -0.233340 -0.060928 -1.816656 -0.401796 -0.753662 1.529228 0.579970 -0.745982 -0.326248 0.184471 0.764018 1.187111 -0.002303 0.524321 0.733039 -2.977781 -1.348110 -1.517499 -0.364632 1.856832 0.097258 0.161718 0.304056 1.093774 -0.473477 -0.403351
zero -1.527070 -1.118203 -0.134053 -0.888475 0.254821 1.608599 -1.848571 -0.837208 2.221475 -0.738045 -2.670811 1.429712 0.146102 -0.056722 0.001730 4.152982 1.032460 -1.642742 1.960508 -0.461024 2.364968 -1.699393 -1.401422 -1.809544 -0.215349 -4.491630 -2.034354 0.736270 1.999614 -0.108526 0.624849 1.521255 -1.976234 1.768919 0.160641 -0.096178 -2.005085 -0.782956 0.118496 1.082834 -1.153157 0.910298 1.466684 -2.832241 -1.070948 1.896734 0.156919 -4.067358 0.102013 -3.202704
nine -1.143580 -0.545538 0.224166 0.274785 3.105400 1.316651 -4.679857 0.008160 1.450852 -1.707885 -1.358287 1.107319 -0.900634 0.249728 -0.747420 0.943105 -0.706457 -1.510356 1.893129 -3.024687 1.667694 -3.583095 -0.938917 -1.043802 -0.300198 -1.873888 -0.688297 -0.964420 0.334234 -2.454961 -0.988220 1.471153 -2.847673 0.368820 -0.530706 -0.877551 0.779804 0.366630 1.447032 2.115115 0.156012 0.351421 -0.523290 -3.204456 -0.212061 -1.842623 1.983083 -3.050192 -1.718749 -2.580111
two -1.335179 -0.601304 -0.426867 -0.652806 0.274837 1.285378 -1.325649 -1.574437 2.502653 -0.544835 -1.567428 0.216635 -0.488743 -0.856614 -0.053628 2.567258 0.877118 -0.882209 2.473270 -1.631556 1.263270 -2.739842 -1.139368 -1.179244 0.093134 -2.838901 -1.601303 0.840878 1.710898 0.154743 -0.004885 1.382809 -1.619610 0.909836 0.174862 0.216332 -1.182691 -1.099174 0.529065 1.658932 -0.445275 0.445812 0.884120 -2.457892 -0.093255 0.950232 -0.295447 -2.953707 -0.279804 -2.608011
is 1.631491 2.639565 -3.104301 2.119981 -1.419354 -2.960109 5.009549 1.067984 -1.566352 -0.191713 0.659318 -1.346571 -1.941983 2.272734 -0.800866 1.696460 -2.288058 0.680296 -1.238310 -0.784211 -1.290620 2.049336 -0.390231 -0.235800 1.592825 -0.477946 3.304030 1.743381 1.520041 1.849270 0.406714 -0.848525 -0.062373 1.159702 -1.027667 0.280267 -1.584964 0.480633 0.747249 0.682572 2.561488 0.422282 -0.315806 0.237110 -0.482560 -0.417386 -1.749924 -1.112863 0.504896 1.226899
as 2.357904 2.352618 0.198519 -1.260796 -1.569568 1.442210 -0.477907 -2.402470 -3.172562 2.147976 1.460791 0.804189 -0.518841 -0.149921 0.047384 -0.851708 1.987209 -0.330897 0.166097 1.450126 2.706330 2.679392 -0.290849 -2.952032 -1.759317 2.112955 0.198450 1.058191 1.343076 -1.441803 -0.783266 -0.075509 -0.183063 0.055337 -0.850347 1.171868 -1.019822 0.026382 1.374819 2.017100 0.893333 0.664131 -1.954762 0.037793 -2.307557 -0.209612 -2.777246 3.213540 0.289710 2.699908
eight -0.538667 -0.351027 0.896593 0.357185 3.532836 1.071705 -3.907633 -0.681695 1.253839 -0.738211 -0.991107 0.757277 -0.911612 -0.786977 -0.501078 1.687112 -0.561172 -1.094764 2.586624 -3.309511 0.977708 -3.319105 -0.543171 -1.301545 0.323032 -1.334240 -0.583607 -0.679670 0.593630 -1.590232 -1.199559 1.719238 -2.793962 -0.120453 -0.532981 -0.401080 1.190662 -1.056537 1.189759 1.759258 0.307647 0.537258 -0.415555 -2.163461 -0.856376 -0.830030 0.439571 -3.286169 -0.926686 -3.209611
for 0.719011 -0.316796 -0.718978 -0.212472 -0.121227 -1.270749 1.579060 -0.750677 -0.914624 0.755801 2.977596 0.844480 0.436503 0.281202 1.103244 -0.154935 1.655275 0.436039 0.110639 0.382987 1.953642 0.440156 0.140056 0.055014 -0.258108 0.112952 -0.498175 -1.733265 0.042160 0.521499 -1.191327 -0.556674 1.269000 1.491322 1.361658 0.502277 0.264488 -0.214345 -0.759216 -0.280869 0.654965 -1.119882 1.124907 -0.658975 0.411635 -0.398524 -0.358874 -0.028609 -0.083245 -0.004964
s 1.102384 -0.631843 0.032320 -0.680603 -0.818964 2.065381 -2.199425 -0.783987 -0.096540 -1.108885 0.013602 0.593781 0.545921 2.428040 -1.007535 1.164586 -0.233462 -0.878563 -0.471961 1.733344 0.581734 -1.419870 0.351794 0.559995 -0.223444 -0.759899 -0.041872 -0.820564 -1.203423 -0.176984 -0.874061 -1.660257 -0.483347 -0.950692 -0.117731 -1.244075 -0.388694 1.169380 -0.451347 0.021748 -1.035666 0.174912 -1.106912 -1.889218 -1.424675 -0.531459 1.378440 -0.725798 -2.267513 -0.998324
five -0.927972 -0.590808 0.122119 0.443590 1.906182 1.297924 -2.736145 -0.849931 2.042673 -0.087616 -1.261250 1.202241 -0.744930 -1.379728 -0.211553 2.412836 -0.040480 -1.158817 2.562395 -2.292022 1.194895 -2.360461 -0.952857 -1.199089 -0.146319 -2.973059 -1.363434 -0.346347 1.787959 -0.658147 -0.360576 2.007973 -1.967594 0.357837 0.536465 0.054871 -0.144228 -1.436884 0.461768 1.701795 -0.530600 0.523179 0.712517 -1.894608 -0.823128 0.074397 -0.693024 -3.342130 -0.307138 -3.441395
three -1.180071 -0.513258 -0.145757 -0.185061 2.187216 1.459540 -1.848035 -1.398000 1.996913 -0.271124 -1.005516 0.565383 -0.875505 -1.393496 -0.110438 1.737898 -0.032758 -1.010054 2.701183 -2.378564 0.787121 -2.479952 -0.804230 -1.155744 0.246304 -2.308332 -1.220918 0.004011 1.588345 -0.026621 -0.203776 1.777125 -2.120364 0.482136 0.418419 0.263011 0.222580 -1.365050 0.760398 2.124141 -0.656810 0.470504 0.826694 -1.505059 -0.284711 0.261153 -0.793904 -2.713672 -0.440756 -2.976121
was 2.821943 3.474899 2.280216 -0.408099 0.191443 -1.933078 -1.468993 1.115681 -3.206762 0.007569 -0.365874 0.217505 -2.576566 -0.278974 -0.664223 0.273674 -3.816292 -3.687128 -1.211842 -2.459358 -0.317872 0.693484 0.429996 -0.293365 1.966409 -0.559361 -1.765609 0.501568 -1.411658 -2.577926 -0.790751 -1.745596 -1.586558 -1.581679 -0.444642 -1.079684 -1.685832 1.168866 -0.109951 -1.364846 1.070886 -2.388438 0.816445 -0.233904 0.447138 -1.752742 0.863249 -2.753440 -2.743476 -1.218085
by 1.025821 -0.703646 0.620021 -1.146054 1.048615 -1.102422 -1.663113 -1.008401 -0.548063 -1.383201 0.627415 -0.826790 0.739741 -1.212008 -0.374230 -0.280539 -0.198075 -0.087631 0.027262 0.838742 0.905572 -0.238936 0.062405 0.284035 -0.245779 0.917608 -0.640974 1.334910 -1.330033 0.763749 -1.865530 -0.398780 -0.943777 0.061734 -0.753000 0.443537 1.496501 -0.090836 -0.349920 0.611773 -0.878535 0.184441 1.453207 -0.464988 -0.657998 0.235238 -0.810573 0.099147 -0.795162 1.518457
that -0.695055 -2.158687 0.099838 -0.104540 -2.463592 -1.346386 0.605872 -1.194360 -1.394040 0.879288 -0.598479 -0.735594 0.823592 0.341514 -1.229630 -1.857385 2.371984 -1.658709 -0.479795 1.035931 -1.145531 -0.098258 0.133484 0.230991 -0.505326 4.499727 0.351059 -1.361280 -0.187981 1.565879 -0.034945 -1.395043 -0.747479 -0.440442 -0.358500 -0.471820 -1.087854 -0.853637 1.731244 -1.416836 -2.623739 2.171044 0.457806 2.467498 0.613611 -0.159582 -1.377883 1.049430 0.986345 1.132541
four -0.879339 -0.322752 -0.049166 0.009505 2.391556 1.232373 -2.670704 -1.090706 1.961134 -0.221964 -0.965161 0.812933 -0.749383 -1.464423 -0.302784 2.080768 -0.102394 -0.948705 2.674684 -2.316864 1.033807 -2.566055 -1.029590 -0.886892 0.017016 -2.376504 -1.104415 -0.081844 1.776538 -0.350863 -0.653307 2.006773 -2.259212 0.367098 0.605777 0.046978 0.203294 -1.607631 0.645586 2.032821 -0.543346 0.648343 0.973726 -1.974162 -0.341632 0.102309 -0.547693 -2.719486 -0.439657 -3.011402
six -0.791444 -0.245099 0.382375 0.298231 2.829577 1.263705 -3.033278 -0.734706 1.486277 -0.530842 -0.703606 0.788295 -1.075504 -1.013074 -0.644159 1.878113 -0.293632 -0.877925 2.837415 -2.898363 1.069236 -3.005532 -0.826022 -1.629198 0.283598 -1.861134 -1.411152 -0.549662 1.461159 -0.873119 -0.782986 1.877866 -2.243423 0.177919 0.472723 0.044783 0.230754 -1.440201 0.986684 1.917549 0.046408 0.318408 -0.145084 -1.679259 -0.855890 -0.437241 -0.624714 -3.000652 -1.068185 -3.314054
seven -0.745779 -0.354316 0.689182 0.578372 3.274112 1.441718 -3.907523 -0.625992 1.652670 -0.566985 -0.673545 0.920345 -0.851160 -1.036068 -0.942087 1.610077 -0.824993 -0.871228 2.366724 -3.187199 1.157690 -3.019580 -0.586093 -1.079532 0.050965 -1.874996 -0.823056 -0.786142 1.345734 -1.238993 -1.047019 1.763099 -2.644426 -0.210411 -0.004825 -0.201439 0.903051 -0.680226 0.872154 2.093485 -0.031442 0.159706 -0.226662 -1.938271 -0.879707 -1.036269 -0.456524 -3.055645 -1.155630 -3.070894
with -0.326655 0.532046 -0.473586 -0.992507 -0.535766 0.481502 0.340388 -0.481933 -0.435871 0.076412 1.245679 0.218119 0.211378 -0.528429 0.513583 -1.994515 0.399571 -0.781850 0.089203 -0.329037 1.593193 1.067222 -0.233936 0.194180 0.385053 -0.588552 -1.557754 -0.141000 -0.044047 1.685778 0.127251 0.879229 -0.165681 0.249745 -0.366705 0.379627 1.553727 -0.665996 -0.710163 -0.994978 -0.418049 0.438451 -0.394504 0.674664 0.316247 0.158998 0.039459 0.134891 -0.926558 1.037819
on -0.834229 -0.617573 0.696434 -1.275772 -2.085239 -1.577602 0.180048 -0.800076 0.096472 0.191154 0.089305 -2.764095 0.874085 0.071428 -0.511656 -1.004652 0.587879 -0.380762 1.383595 -0.369144 -0.948291 -0.719821 -1.018687 1.576017 0.197351 -0.318098 -2.243984 0.905460 -0.318367 -0.920778 0.131225 0.929043 1.406812 1.330686 0.157244 0.306135 1.062574 0.338654 0.071765 1.191121 -0.913649 -0.300018 -0.458548 -1.293825 1.438633 -0.863680 0.845655 -0.238868 -2.023618 -0.110098
are 0.985372 2.650922 -3.890209 -0.084098 0.000663 0.423909 6.086891 1.275792 -2.375464 -0.568774 -1.276560 0.810402 0.153893 0.803650 2.731488 -0.729514 -1.432227 2.381052 0.267602 2.218375 -3.523712 0.095664 0.663406 -1.313073 0.264274 -2.421032 2.362662 3.765262 2.106640 0.401532 0.419898 3.104260 1.404811 2.560601 -1.255442 -1.371905 -0.601213 1.392719 0.813510 0.726608 2.088077 0.113994 0.577958 2.456241 2.992071 1.927041 -4.546277 -0.495567 1.188020 3.190743
it -0.172710 -1.182943 2.000148 0.097244 -1.668772 -2.111434 1.165854 2.927927 -2.024767 -0.079690 -1.870191 -0.345680 1.016766 1.514807 -0.244520 -0.812872 0.490206 -1.844413 -1.557950 -1.173700 -0.657369 1.340672 -1.757635 0.393924 -1.254249 2.368941 1.715547 -0.840604 0.336256 2.542379 -0.115872 -2.212246 0.041492 -0.717790 0.915224 0.039407 -1.779202 -1.443456 0.302842 1.157243 0.207389 -0.038917 -0.556393 -0.101303 -1.063110 3.427128 -0.252187 -0.128375 -0.119447 0.485662
from 0.095232 -0.998204 0.115981 -0.478204 -0.283128 -0.749975 -0.301670 -0.137626 0.408665 -0.226730 0.957055 -0.319273 0.328377 -1.230806 -0.978960 0.853760 0.451120 -0.108147 -0.212182 -0.536540 -0.353331 1.585400 0.060279 1.223340 -0.975262 -1.171190 -1.026417 0.675294 -0.250268 0.168461 0.107486 0.789447 -1.071152 0.127425 -0.340468 0.163761 1.124890 -0.055409 0.671209 0.126085 0.040962 -0.478127 -0.215057 1.006533 -0.132779 0.269408 0.176328 0.687997 -0.639850 -0.058868
or -0.007238 0.809782 -2.280532 -0.238916 0.324959 -1.404843 2.100342 -1.953808 0.249256 -0.260750 0.022678 0.273602 0.921411 -0.215104 0.702637 -0.609412 3.470550 -0.611349 0.142939 1.099562 -0.592481 1.217259 0.276833 0.945903 1.363585 1.249043 2.818781 2.982890 -0.181941 2.271339 2.412017 1.131610 1.211885 0.365905 0.668225 0.445171 0.049484 -0.097265 0.705147 0.216232 1.411496 -1.837050 -1.345285 1.212571 -0.364435 0.981459 -0.955622 1.208495 3.097739 0.921215
his 0.932857 0.757606 1.448551 0.136385 -0.500439 1.720260 -3.093663 -1.348348 -1.645805 2.372359 0.449131 -0.098070 -0.933130 -0.171629 0.417894 -2.095985 -1.094281 -3.148067 -0.415257 -2.320800 -2.894086 -0.025566 2.718220 0.566495 -0.207520 0.612265 -2.412640 -3.027689 -3.094883 -0.636535 -1.399180 -3.033135 1.894189 -5.573067 1.819761 -0.486656 -0.019443 0.047030 -0.227746 -2.825326 -1.506098 -2.073526 -0.750390 -2.707765 -1.990623 -1.957148 -0.165314 -0.683488 -3.073423 0.868658
an -0.072841 0.590187 0.667622 -1.086166 -0.775806 -2.031339 1.851713 -1.271132 0.025179 -0.433009 -0.864443 -0.512853 0.053604 0.461986 -0.496974 -0.250172 -0.355838 0.447126 0.202913 -0.673693 0.567463 -0.080044 0.795416 1.508435 0.261450 1.730353 0.842238 -1.135657 -0.499628 0.251897 0.211702 -1.894930 1.089786 0.777327 0.330967 1.324678 -1.599165 0.612628 -0.009403 0.253541 0.950480 -0.057689 0.995543 -0.156139 -3.029584 0.550721 1.275156 0.149964 1.002675 0.485759
be -0.674465 -1.508458 -1.056153 -4.511293 -1.503798 -4.048819 2.764062 -1.431088 -1.438506 -0.959559 -2.532161 2.048624 2.390333 -2.851765 1.897085 1.838893 1.521505 -1.908125 -3.785481 0.125693 -4.819223 3.020001 -1.386726 -0.167299 -0.889967 5.069116 0.816606 -0.411230 0.489670 0.719132 -0.994566 -3.736281 2.830545 -1.037339 -0.399352 -1.163240 0.346678 -3.215225 4.369052 2.703280 2.169784 3.225462 -3.607897 0.900018 2.655801 -0.832304 0.290640 -1.999800 4.916304 2.357892
this 0.652489 -1.948664 0.084783 -0.744205 -0.868739 -1.145574 1.126172 1.339068 -0.810243 0.957945 -1.348701 -0.289791 0.915864 1.454909 0.021504 -0.728753 0.464641 0.514047 -0.100641 -0.086221 -1.251984 0.575329 -0.026866 1.093358 -1.536618 3.465580 0.132778 -0.506646 -2.052681 2.401422 0.565087 -2.618514 1.056544 0.360811 0.144789 -0.028663 -1.847012 -0.819522 -0.439910 0.512244 -0.511382 -0.122497 1.013210 0.445805 -1.454306 0.941552 -0.531419 0.676015 0.353574 0.313709
which -0.078288 -1.640639 -0.144619 -1.310646 -0.279541 -0.116396 -0.304114 -1.092814 -0.494880 -0.558456 0.075765 -1.458008 0.281734 -0.778120 0.465319 -1.002521 2.461427 -0.062421 -0.496950 0.089296 -0.465847 -0.320595 0.260795 0.174227 -0.349058 3.630452 -0.357802 -1.503084 0.230398 1.118443 0.918592 -0.233147 0.507366 -0.251856 -1.541387 1.221671 0.303532 -0.086395 -1.392648 0.585418 -0.702266 1.657007 1.054341 2.182991 -0.850919 -0.389040 -1.100342 0.883826 -0.001664 1.071150
at 1.210391 -2.272321 0.905553 0.572719 -1.234415 -2.345477 -1.067882 -0.151659 0.263278 2.183528 0.576014 -0.229925 -1.143987 -1.059770 3.629124 0.435849 -2.918139 -2.941116 1.830240 0.802206 -1.193758 0.525611 -0.052145 2.776213 -0.556301 -1.508990 -2.285602 -0.490546 -1.561467 1.168977 -0.262477 2.221129 0.611168 0.911873 -0.485095 0.454174 -0.146357 -3.041121 0.680807 -0.661871 -2.011659 0.880058 -0.000758 -1.584570 1.972829 -0.769114 0.637467 0.472215 -0.705337 -2.311379
he -0.187258 1.535166 4.342452 0.736476 -1.546280 -0.455609 -1.499563 0.261220 -2.339092 1.242273 -0.506498 1.021523 -1.319419 -0.321598 0.764677 -1.622175 -2.488115 -5.162829 0.867465 -4.123005 -2.316608 -0.342657 0.221869 1.800118 -1.302874 2.738789 -1.980383 -3.910611 -1.535495 0.159414 -1.767748 -2.935054 0.753668 -4.102917 3.989172 0.927109 0.157520 -0.023799 -0.361107 -1.419101 -0.748658 -1.491507 -1.118024 -2.125372 0.167162 -0.045212 0.390115 -0.583484 -1.078746 0.558311
also 0.674488 -2.404975 -0.606297 -1.116815 -0.142530 -1.331006 2.207384 -0.141056 -0.137184 1.475486 -0.531171 0.880015 0.306980 0.160788 2.028730 0.083516 2.952111 1.585180 0.484309 0.627215 0.562420 1.457696 1.587180 0.790797 3.289590 -0.964935 -0.003394 -0.239458 2.057550 -1.575023 -2.191189 -3.387368 1.160102 0.142923 -0.407133 2.836888 -0.061255 1.458494 1.024873 0.366405 1.062581 1.019563 -0.032007 0.492516 -0.772685 -3.376497 -1.030942 1.719725 -0.667260 1.586909
not -0.869285 -2.758532 0.492930 0.031556 -3.183014 -3.324929 1.489820 1.773155 -1.994509 1.526974 -0.686574 -1.817399 2.066565 -0.857264 0.992392 -2.257376 1.932091 0.230097 -1.684712 1.888818 1.756642 -1.092446 1.886007 -0.864086 -0.082102 2.210961 0.717246 2.132029 2.032900 1.500342 -2.585714 -3.717116 -0.711966 -2.256145 2.892572 0.058761 -3.253086 -2.593350 2.582044 0.296762 -1.577681 -4.001154 -4.312608 -0.476380 2.466533 2.607824 -2.981550 4.012434 0.898573 -1.187768
have -0.063054 -1.989389 -2.143473 -3.363735 -1.631301 1.440550 -0.986814 1.657834 3.670233 -1.730906 -0.708658 0.973440 3.630960 0.614893 1.228784 -1.787222 -1.418591 -0.890064 -4.901622 1.749927 -0.313295 4.595466 -1.689851 -1.013177 -1.377087 0.911780 1.857669 0.420461 -1.106358 -0.724741 -3.218272 1.945594 2.521646 0.193006 1.296269 -0.932291 -1.311186 -0.437198 2.880017 -1.256194 0.296232 -2.216387 -0.117932 1.929402 3.822554 0.716388 -5.780946 -0.979810 4.298647 2.693335
were 2.055519 3.441231 1.898997 -3.114528 1.542348 1.135996 -0.709602 1.754696 -4.315377 -0.240307 -1.874314 1.666617 -0.078725 -1.651373 1.954185 -0.894356 -2.664443 -1.690411 -0.059751 1.722728 -1.887488 -0.130797 1.270841 -0.538592 0.539750 -2.123542 -2.398220 3.231262 -1.237335 -3.589496 -0.026521 1.366220 -0.687495 0.096481 -0.310153 -3.855723 -0.286980 0.940146 -0.253158 -0.427264 -0.616350 -1.950314 1.844939 2.787940 4.131020 1.634315 -1.461459 -1.148109 -1.288302 1.066747
has -0.062972 0.457491 -3.844761 0.990460 -1.848333 0.021978 -1.487789 3.694220 4.377311 -2.601858 2.293582 -1.313331 -0.046903 2.609979 -0.799331 -0.387213 -3.933175 -0.317318 -4.600189 -0.112423 3.234184 4.620169 -3.158654 -1.278877 -0.223972 -0.745879 2.940492 -0.158004 -1.656476 1.075969 -2.971130 1.064776 1.396773 0.721396 -0.871117 1.288682 -2.728352 1.974233 0.422979 -2.805494 0.186960 -3.580227 1.791562 -0.209487 -0.243375 0.502371 -4.251376 -2.104250 0.763036 1.855878
but -1.666532 0.233432 -0.106963 0.062145 -1.397499 -0.343401 0.445508 -1.403472 -3.058381 -0.784803 -0.150836 0.199438 -0.761081 -0.115585 -0.983719 -2.842378 2.981509 -1.013801 -0.948269 1.166979 0.151213 0.554167 -0.895909 1.616021 -1.292981 2.884594 1.151440 -2.625043 -2.622492 1.192797 2.650758 1.913392 -0.797464 -2.402762 -0.840905 -0.762825 -0.197097 -0.893409 -1.385277 0.222881 -1.152960 0.369374 0.129946 2.920598 1.510845 0.863507 -2.568924 -2.080762 0.107948 -1.166407
other -1.411993 1.089941 -2.774579 -0.400372 -0.344064 0.882464 1.963581 0.701991 -0.025621 1.060562 2.092919 -1.349603 1.942760 0.446159 3.566200 -1.057471 1.503966 0.801741 -0.480612 0.413343 0.500813 -0.422493 -0.793631 -0.407333 0.704259 -0.366468 0.882107 1.435541 0.782550 -2.511620 0.796024 -0.200702 0.772528 -0.975644 0.019365 -0.485277 0.959773 -1.567317 0.116141 -1.322345 -1.233424 1.291549 1.645855 2.084430 -1.723646 1.534627 -1.106448 2.016310 3.099494 2.692546
their 1.070906 -0.786791 -0.247831 -2.972683 0.142075 0.103555 0.122123 1.067640 -0.501034 -0.060206 -1.168458 1.145167 0.237036 -1.151115 0.016823 -3.468198 1.667103 1.468593 -1.322292 2.202773 -2.779945 -0.679417 0.684247 -1.728750 -0.068816 -1.547056 -1.259652 -0.110182 -1.194959 -0.433845 2.702347 0.535230 1.782155 -1.726029 0.481369 -3.794377 0.410601 -0.314454 0.106347 -2.189345 -1.392368 -2.545645 -1.361348 0.888226 0.429626 0.439728 -0.053078 3.252117 0.200667 1.960292
its -0.207307 -0.385099 -0.655111 -2.288802 -0.139783 -1.127022 0.286795 3.708527 1.371076 0.425052 0.330374 -0.790431 -0.651799 1.138283 -1.040550 0.236986 0.478699 1.052948 -2.252700 0.200269 -0.697753 1.503890 -1.707418 -2.034534 -1.034226 -0.119850 0.189907 -0.479510 0.514440 1.230373 1.618607 -2.015450 -0.387981 -2.248048 -2.884961 -0.759269 -2.044519 -1.262019 -1.774208 0.763490 -1.324685 -1.375667 -0.932135 -1.095681 -2.120753 0.152513 1.827518 0.746987 -1.833687 0.854576
first 2.008143 -1.677372 1.986017 -0.432354 1.408561 -1.625351 -2.306492 -1.748636 -1.058827 -1.112307 0.499241 0.540015 -0.255375 -0.003431 1.284724 -0.806769 -2.338168 -1.178555 -0.737918 -2.160813 0.676060 -1.947486 0.021301 -0.070695 -0.470128 0.780580 -0.454438 -0.869762 -0.260684 -0.888773 -0.425667 -0.676559 -0.717613 -0.242676 -0.281280 -1.227763 -0.433398 -0.151789 -0.704742 0.792805 1.369774 -0.074010 3.075069 -0.702294 0.040369 0.050417 1.456373 1.336048 -2.504655 -2.508040
they -0.221826 -1.571876 0.930625 -1.135769 -0.324776 -0.261669 2.139907 3.087927 -2.801672 -3.188934 -1.226278 1.644549 0.878998 -3.964952 0.453612 -3.719768 0.862653 1.014823 0.000657 1.744009 -2.645486 -1.537709 -2.167130 -0.067688 1.494643 0.490050 -1.553542 0.688920 -1.175667 0.595835 2.096997 -0.066547 1.393836 -2.790742 2.911924 -3.294753 0.780452 0.576782 1.302679 -0.569667 -0.893563 -0.934406 -2.051716 1.631856 1.778820 1.585491 -1.650374 4.108805 3.397626 -1.048619
some -0.993095 0.114039 -0.137585 1.262977 -1.741103 -0.414629 1.435073 0.692058 -0.527140 0.277053 0.951273 1.029531 2.366674 -0.194071 2.195691 -1.574042 1.687280 2.079047 0.334501 2.601248 -1.575021 -0.084627 0.904992 -0.245169 -0.618268 0.481779 -0.515586 1.419361 0.193979 0.146717 0.862891 -2.343811 -0.406095 -0.680932 -0.222862 -1.086543 -1.870465 1.387050 1.582363 -1.849828 0.435369 -0.381227 -0.225558 2.277895 -0.546486 1.729092 -0.974032 1.233283 2.333339 1.418784
had 1.606620 1.521195 1.395884 -1.652746 -0.642953 0.836873 -3.806273 2.969681 1.546006 -1.186120 -0.159976 -0.354512 -0.549000 -1.123251 -0.367777 -2.337934 -4.441628 -3.789047 -3.251449 -0.729810 2.127954 3.094927 -0.916253 0.048675 1.442451 -1.620823 -1.155880 -0.968640 -3.766800 -1.521642 -3.078481 1.468179 -0.342887 -1.693251 1.298576 -1.282766 -1.429258 1.667217 1.218380 -4.056082 -2.256407 -5.563047 2.281977 1.367536 2.536503 0.211111 -2.891674 -1.001306 -0.473307 -0.260327
all -1.376739 -1.197227 -2.718772 0.662208 -0.446202 -0.155672 1.404628 0.331310 -0.674906 0.035465 0.233531 -0.161903 -0.708350 -1.804786 1.110997 -1.726371 0.014384 0.657307 0.756882 1.229260 -0.658896 -0.090578 0.353397 -1.232643 -0.953845 -0.029219 -0.062151 -0.627705 1.066585 0.672285 -1.067916 -0.751609 0.130840 -2.039770 0.127153 -1.652794 -0.728119 -0.331761 1.621066 -0.634182 -0.508291 1.618683 1.458542 1.636643 1.590926 1.874709 -0.001060 2.177912 0.179468 -0.242224
more -3.008246 1.237836 0.856363 -1.134739 1.072236 -1.344513 1.696770 1.384625 -1.996161 4.129883 -0.344378 1.573781 3.235516 0.571288 2.406571 -0.225690 -0.079881 1.206730 -2.360962 -1.672206 1.251571 0.127985 -1.564631 -1.774499 1.466542 -0.317941 1.273409 0.706198 0.267961 -0.096985 2.403286 -1.349039 2.933882 1.895994 0.347671 0.447136 0.748072 -0.442703 0.521366 -2.411785 -3.586762 2.149482 2.420995 -0.446664 -2.016556 1.721352 -3.514530 1.183889 2.458634 -0.401361
most -0.747239 -1.548625 0.647216 1.196479 -0.038380 -1.345876 0.782368 -0.131986 -1.378524 1.266193 2.529028 1.649530 2.340049 1.111446 2.102830 -1.446850 -2.798412 2.999907 -1.011796 1.436265 1.376581 0.010444 -0.141266 -0.011513 -0.053182 -0.998761 0.714796 0.504779 2.752691 -1.014794 0.063345 -2.062745 0.173348 -1.165606 -1.154492 -2.512029 -1.270410 0.685251 0.341524 0.042643 0.519655 1.850737 0.378359 0.698680 -1.063828 2.454265 -1.687180 0.639449 -0.970089 1.503387
can 3.138010 3.413429 -3.070746 6.704272 1.572837 0.385440 3.718749 0.310631 -2.387211 -1.328741 -2.874098 -4.259904 -0.870758 3.025640 1.943556 -4.585721 2.892447 2.204150 -0.337905 -1.076416 -0.996794 2.399601 -1.770574 -1.028289 0.263330 -2.184433 1.574936 4.406250 -1.279660 4.645840 -1.103777 1.124001 1.312128 6.437024 -1.131724 1.401849 -2.302436 1.378332 1.135628 -3.849256 -0.070448 -1.822650 -0.334413 1.184042 -0.925266 4.244956 -0.788265 2.284247 2.873244 -0.314136
been -5.781813 4.050888 6.236826 -0.226490 -2.860909 -0.394425 5.560501 -1.017653 -2.070496 -1.305372 -1.675352 1.956964 -3.714437 -1.314354 4.815224 2.907509 3.728194 0.615947 0.978656 0.661895 -4.105489 -1.952991 -1.879793 1.867746 -2.822449 -0.998339 -0.177345 -1.676692 3.584673 0.439814 2.912224 -4.585547 -2.811368 -0.685373 -2.941014 -1.871425 -3.697945 1.283450 1.532323 -1.346576 -0.494772 -1.299163 0.174685 2.304799 -0.837888 -5.186134 1.913139 0.474289 -2.400779 2.698940
such -1.031784 1.388610 0.470543 -0.881720 0.598424 0.036431 2.468800 2.345417 -0.538637 -1.608608 1.732845 -1.580505 3.577684 -0.305598 4.483678 -2.980441 2.328789 1.295103 0.932669 3.344932 -0.484500 3.509660 2.299037 0.564264 -0.724520 1.988211 1.760783 2.652699 -0.115962 0.893741 2.276448 0.683274 1.666386 -0.654326 1.955318 0.464721 -2.076747 1.631355 0.731825 -0.814751 2.318008 0.612467 -0.315070 -1.909317 -0.616879 0.258634 1.122119 -1.131156 3.573907 0.812323
many -1.953648 0.361470 0.474574 2.062818 -1.695765 0.236832 0.304725 1.677608 -0.630099 0.012801 2.348096 1.896576 1.704803 -1.324683 2.602633 -2.479474 0.719484 2.298477 0.240051 3.154914 -1.141329 0.507903 0.918730 -0.815619 -0.994276 0.370513 -0.693488 0.261049 1.157520 -1.487699 0.832120 -2.839354 -0.018743 -0.305832 -0.186304 -1.498224 -1.071270 1.982043 0.816845 -2.375640 0.994853 0.391893 0.563929 2.405383 -0.642572 1.722456 -1.003597 0.974294 0.951046 2.151201
who 0.230519 -0.224250 2.336803 0.133249 -1.272501 -0.785424 -1.732287 -3.737788 -0.061520 -1.284289 -1.294782 1.987867 0.152635 -2.223538 -0.157550 -2.231339 2.130651 -1.508384 -0.194415 2.306136 -0.273312 -1.188349 2.155370 1.193563 -2.423042 1.715893 -0.434147 -1.837298 -0.471004 0.552689 0.572771 -0.661090 -2.006934 -2.521341 3.054834 -0.902716 2.398803 0.114506 -0.778599 -2.464392 -2.172732 0.691186 0.683083 1.372963 -1.306129 -0.830051 -1.788117 1.198164 0.007613 1.827244
new 0.443851 -1.258311 1.335001 -2.966185 -0.849800 2.542377 0.449062 1.973428 0.715380 -1.173927 0.162980 1.431379 -0.896712 -0.130455 -0.058453 3.770157 -0.014368 -2.038471 0.191581 -1.215255 1.200781 -1.644434 -1.455444 -1.192887 0.241447 3.283332 -2.189787 2.212342 -2.072549 -1.888373 0.157592 1.188433 0.232909 0.372436 0.596475 0.922086 0.715564 2.177503 -1.244175 -2.503781 1.762875 3.514961 -1.098580 1.038017 -1.004938 -2.215812 0.979588 2.129400 -1.651633 -2.014782
used -0.207376 -0.866401 0.648511 -0.152133 2.584453 -1.333672 0.481223 1.552840 -2.480027 0.029121 3.356863 0.161183 0.228803 0.534272 0.925759 -1.758315 2.727985 2.663149 -3.288724 -0.395876 0.194818 -0.650203 -1.060921 2.295733 0.659524 -0.086052 1.758270 2.387306 -1.810714 3.331542 0.395839 2.182335 -0.002149 -0.491153 0.544427 0.980214 -3.314866 -0.367965 -0.673124 0.938390 3.759941 1.360812 0.727390 0.323563 -1.768480 2.707464 -0.386442 1.339602 3.076504 1.545478
there -1.923514 -1.259805 -1.038428 2.365119 -0.281223 1.405719 0.645957 3.441956 0.727588 0.252232 0.714750 -1.023456 1.479762 -1.006328 -1.532878 -1.224911 -0.483339 -1.978437 1.553349 1.513129 2.015183 -1.381998 -2.276494 3.200460 0.993803 1.201847 0.110394 1.338259 0.682095 3.126887 -1.560993 2.295727 3.403742 -2.502552 1.245524 -1.925190 -1.794553 -2.554627 -1.308854 -0.711316 -0.090378 0.884727 -0.818056 0.536284 -1.117188 1.840503 -5.129410 -0.251553 2.569565 0.270071
after 2.164542 -0.484897 0.561531 -0.418796 0.470764 0.162663 -0.721125 -1.992073 -1.210072 0.333771 0.450645 2.174319 2.068009 -3.081293 0.581588 1.309454 -0.975012 -3.576150 -1.559690 -1.911343 1.052800 -0.145544 -0.747224 2.354607 0.943592 0.209903 -2.380939 -1.766897 -0.339418 -0.526607 -0.308545 -0.070699 -0.583932 -1.347569 -0.289362 -0.525967 1.635352 0.004724 -1.748792 -0.591113 -1.489086 -2.621253 1.829001 -0.449614 0.911350 -1.795573 -0.100427 -0.402591 -2.969053 -2.366720
when 1.586708 -1.798842 -0.455784 -0.691046 -0.462534 -1.431209 -2.026031 -1.423873 -3.204666 0.153361 -0.629720 0.728214 0.712466 -1.527560 0.121116 -1.709212 1.986999 -2.092065 -0.501736 -1.651399 0.278426 -0.165705 0.860932 1.344037 1.543538 1.882851 -0.669261 -2.079073 0.367117 1.447990 0.486349 1.076141 0.000512 0.336985 -1.442926 0.850962 0.560751 -1.104575 0.423244 -0.701693 -1.132226 -0.190795 0.236170 1.054284 0.473178 -0.048185 -0.768595 0.650686 -0.861314 -2.070244
into 0.770890 -0.918643 1.503656 -1.067008 0.300626 -0.351778 0.240058 -1.038913 -0.168684 -2.560329 1.019853 -1.329499 0.791175 -2.775645 -1.260212 0.359007 -0.339159 0.614760 0.210164 -2.177291 -0.604566 2.375628 -0.949395 0.633034 1.788916 1.311899 -1.245448 0.379070 -0.632403 0.527613 0.746496 1.220292 1.074289 1.216266 -0.861587 0.820189 0.943788 1.017225 0.804618 -0.146677 -1.756845 0.663302 -0.492863 1.634581 0.853800 2.210086 1.052001 1.073743 -1.939216 2.387460
american 0.086896 -0.327256 1.329935 0.316204 2.192915 0.023075 -0.876577 0.241760 3.448713 -0.779058 -0.322795 3.448850 0.735781 1.246604 -1.764468 -1.967411 -0.447639 -0.436518 0.287175 -1.334326 2.562945 -3.217380 1.226844 0.679317 -1.503775 -3.367288 2.688950 0.619271 -0.443956 -4.012264 1.399575 1.330461 -2.667635 2.066375 1.798549 1.030778 1.064173 -1.007989 0.319239 0.954390 0.627624 2.130262 0.449380 -1.998460 0.299177 -4.432987 1.415676 -0.589442 -0.905798 1.760626
time -0.310264 -0.532164 -0.520754 1.267160 -1.475076 -1.379727 -2.379873 -0.169236 -2.542321 1.185955 -1.033460 1.536906 -3.423332 -0.153726 2.058529 -0.596826 -0.313177 -2.953034 -1.012161 -0.487384 -0.282650 2.092289 -0.919532 0.332318 -0.418748 0.522953 -3.318689 -0.781424 -0.720994 1.432059 -0.767621 -0.128954 1.153924 -1.699252 -0.502243 -2.017416 -3.135704 0.015423 -2.092659 1.006997 -0.359297 -0.049965 1.834035 0.996398 1.215863 -1.461301 -0.452758 2.246459 1.665853 -2.653744
these -0.349735 -1.901895 -1.087194 -0.677595 0.503341 2.005241 1.518167 1.601818 -1.030380 -1.665843 0.613574 -0.346680 2.139202 -1.587115 2.368589 -1.689282 1.787964 1.458769 0.013600 2.184478 -1.267174 -0.888246 -0.271903 -1.049971 0.330493 0.479346 -1.081104 2.104649 -0.274321 0.510151 1.104004 -0.262205 1.639590 -1.480638 -0.402119 -1.634087 -0.944097 -0.313361 -0.141215 -0.720283 -0.880685 0.612270 0.118803 1.940289 0.157617 0.901368 -2.119002 1.733282 2.743187 1.784295
only -0.407666 -0.881450 -0.790978 -0.161149 -0.281149 -2.137406 3.185172 0.574546 -1.079888 -0.120552 -0.629066 1.666892 0.420592 -1.219111 0.382115 -1.040142 0.077003 -1.140903 -0.295829 0.030663 0.072188 -0.707741 -0.952555 0.031245 -0.165280 0.704052 0.453719 0.091070 0.254849 1.389886 -1.201844 -0.873257 0.129185 -1.576069 -0.090707 -1.169877 -1.444061 -0.683329 2.058065 0.829459 -0.444815 0.216580 0.002969 1.282936 -0.116820 1.612698 -0.587445 0.687425 -1.320074 -0.764258
see -1.160946 0.975220 -0.320993 2.804956 1.251890 0.393480 0.503350 -2.617275 2.167130 2.051935 1.451573 -2.400109 -2.469048 2.685374 -2.221769 1.597858 2.824438 4.971153 -0.393650 2.337150 -1.144902 0.337701 -3.615384 3.099021 -0.450836 -0.148882 2.641940 -2.348855 -3.925214 -1.835061 1.788937 0.227856 -0.372247 1.401775 4.288211 -0.130238 1.198487 1.242391 -1.791431 2.921623 2.541095 0.883001 0.144824 -0.120229 0.779402 3.480121 -0.621030 -1.693030 3.532543 0.810441
may 1.354387 3.016387 -1.478806 3.805151 1.317153 -0.234920 2.842584 -1.572523 0.218327 0.237667 -2.564707 -2.047271 0.392006 2.202777 0.411742 -3.267988 3.236454 1.410214 1.602144 -1.773108 0.130127 -0.764165 -3.097271 -0.187883 0.062887 -1.407967 0.375752 4.738119 -1.900435 0.496647 -0.118851 2.526147 -1.187192 1.752718 -0.749704 1.242231 -3.211972 1.803402 2.135967 -3.812611 0.131190 -3.890312 -0.555927 0.378598 -0.571821 1.795026 -0.550676 1.496046 2.305546 -0.910029
than -0.994656 -1.657701 2.078552 1.797493 -3.764370 0.495981 -0.113589 -1.399843 2.952864 0.537675 1.907861 4.132534 -1.393176 -1.803766 -1.348958 -0.081326 4.703797 -1.382405 1.995652 -0.619713 2.333018 1.542106 -0.109965 -2.712535 -1.637382 -2.023842 2.720603 4.790667 -1.198689 7.703136 4.222094 -2.108795 2.339787 -0.159104 1.501102 -0.653404 -1.510463 1.630959 -1.796770 2.208255 -0.836294 -1.972064 -3.055775 2.900423 6.883275 2.719957 -2.560058 -4.515454 -1.245464 -0.858977
world -0.287201 -1.712010 -1.016947 2.796810 2.440140 2.454445 -2.261137 1.972372 -1.584974 -0.944512 -0.999521 1.034513 0.502232 -0.203964 -0.692359 0.913706 -1.928926 -1.006912 -0.568982 2.131916 1.721773 1.811986 -1.188658 1.590264 -0.095413 -1.799418 1.635079 -2.907547 2.783353 -1.219235 1.546681 -1.117964 0.476669 1.747586 -0.321669 -2.153512 -0.981313 0.109515 -1.003282 0.116933 1.369008 2.291853 3.913116 -0.253222 1.285397 -2.006127 2.289645 1.174708 -1.768074 -0.208728
i -0.675774 1.086069 0.474854 2.715827 -0.303650 4.113655 0.505959 -0.001807 -0.549775 -1.703812 -0.066590 0.449156 0.605670 -0.046114 -0.784725 -0.188607 0.988594 -2.105069 0.009585 0.772369 -2.804474 0.636207 -0.031711 0.755690 3.184564 1.905633 2.488322 -2.927548 -0.207957 2.632947 -0.596826 -2.405766 -2.698152 -0.079855 4.150701 0.288571 0.941411 -2.974823 2.529158 0.799474 0.106088 0.844269 -0.726970 0.257617 0.942028 -0.395080 0.281739 2.882606 -0.912023 -5.311109
b 0.418032 2.713063 1.413783 -0.289290 1.833813 1.370066 0.376985 -2.397250 3.189544 -2.423461 -0.725573 2.455840 0.469874 1.395664 -0.721014 -0.006122 -0.739593 2.617876 2.590018 -2.440076 1.799129 -1.054231 1.445283 -1.453730 2.769437 0.013437 2.773115 2.301172 0.320719 2.561213 -2.895392 2.613569 -2.383045 1.889442 1.780288 0.028260 -1.995955 -5.470294 1.002499 2.006858 -0.627085 3.509443 -0.855885 -1.561399 -0.153146 -1.596756 0.073836 -0.935494 0.822231 -1.505803
would 2.444405 3.364206 2.433986 2.601709 -0.640914 0.923940 2.728499 0.191446 -1.748131 -0.518549 -2.334523 -1.683503 -1.017382 0.664208 -1.227309 -3.736096 0.639097 -1.041807 -0.312582 -1.250271 2.241807 1.917631 -1.181303 -1.105738 0.952190 -0.809377 -1.405541 0.643429 -3.708579 0.052156 0.234924 -0.079120 -0.207386 1.204080 1.522242 -0.539463 -3.955738 2.239643 1.183864 -6.588881 -2.830718 -2.302640 0.625930 2.279027 1.977363 1.721559 1.285814 2.368453 -0.748754 -2.946689
d -0.311602 2.593079 3.525265 -0.207734 1.412020 0.984905 -0.851366 -1.651277 2.520262 -1.705169 0.952249 2.199553 0.157232 1.755047 0.708049 -0.376776 0.631799 0.905165 1.458611 -3.550776 0.084785 -2.739538 1.610163 -0.253992 2.432353 -1.716972 4.368335 1.686007 -0.964491 -0.366831 -2.486754 1.841810 -2.820250 0.885311 1.192909 1.900638 0.576070 -2.042212 0.023148 2.465838 -1.506377 1.096536 -0.510475 -1.461443 0.456424 -1.189465 1.336058 -0.476978 -0.066354 -2.983073
no -4.456817 0.298397 0.468690 -0.461779 -1.333859 -2.209200 1.800738 1.429378 0.014170 2.462521 -2.012361 0.973022 -0.410854 -0.136500 0.247048 -0.771066 1.475707 -1.648441 2.859946 0.527739 -1.125421 -2.608827 0.338966 1.628374 1.881116 1.689083 2.983065 0.202811 3.201642 2.100101 -2.082812 -2.016602 0.840963 1.216251 0.179052 -0.925461 -1.298626 -0.976617 3.913771 -0.841394 -1.577942 -0.660100 0.089613 2.301624 0.338658 0.027066 -1.241485 0.269363 -1.341949 -0.918505
however -1.813612 -0.116548 -0.123042 -0.718404 -0.883540 -0.863667 -0.081863 -0.529322 -2.177186 -0.502356 0.127450 0.567745 0.675594 0.409287 -0.448458 -1.530885 2.031625 0.002428 -1.154585 1.555863 0.575571 0.589711 -0.210244 1.409926 -0.984451 2.396424 0.347013 -1.192539 -1.180239 0.824195 1.670034 0.587721 -0.216450 -1.466312 -1.362039 -0.613198 -2.182235 -0.497168 -0.393081 -0.829233 -1.815574 0.424228 -0.369773 1.804343 1.557817 -0.183081 -1.514576 -1.477695 0.422946 -0.393017
between 0.260602 -0.380651 -0.711548 -0.082364 -0.041312 1.185905 1.338758 0.768898 0.771294 1.243086 0.404792 -0.739596 1.392252 -1.705466 -0.052487 0.308516 -1.988248 1.167017 2.787069 -0.578974 0.795827 0.960856 0.009084 -0.020710 0.665257 0.742764 -0.688340 0.800069 1.448037 0.555779 0.468412 1.345625 -0.882168 1.749801 -0.354074 -0.020791 -0.401611 -1.453296 0.947393 0.901295 -1.158522 0.069657 -0.012993 1.139488 1.278485 0.488791 -0.479098 -0.535419 0.527996 2.441173
about -2.551999 -2.493456 -0.209179 1.969173 -2.155914 -0.546151 1.122405 -0.772502 -0.445617 0.586468 -0.465802 0.174111 -0.598458 -1.067857 -2.183616 2.116125 0.326969 -0.373464 0.831112 -0.081367 -0.955193 0.614453 1.146728 0.220253 -0.337386 -1.714297 -1.542314 -0.608681 -0.003575 -0.000370 -0.057661 -0.280745 0.566613 2.660462 2.397627 0.215558 0.241902 0.449807 0.009635 -0.130296 -1.777409 0.087585 1.811488 -0.686484 -0.247829 1.239527 -2.013905 -1.527785 -0.546889 -1.122790
over 0.504830 -0.377920 0.614960 -0.044456 -0.660350 0.740467 0.513233 -0.079921 1.132125 0.622946 1.361451 1.544881 0.538780 -2.301201 2.332092 2.609143 0.160278 -0.956950 1.000348 0.131387 1.026642 1.440211 -1.652503 0.501521 -1.222422 -0.424432 -2.194496 -1.435241 1.595880 1.361032 0.275565 0.904147 -0.533613 1.109524 0.338260 -1.304968 -1.016091 0.724105 0.329699 0.105854 -2.809220 -2.404958 0.595991 0.711797 0.316148 1.379996 0.586915 0.566819 -1.065248 -0.586234
years -2.453871 0.099461 1.318546 0.592423 3.597070 2.469257 -1.425884 -1.269669 -0.314152 1.654414 -1.838504 3.753686 0.407006 -0.879371 0.770417 3.944358 -0.364881 -4.062264 0.391917 -0.898924 -1.591300 0.778777 -2.476045 -0.231802 0.755878 -1.564707 -4.129940 -2.726615 0.518548 -0.056273 0.379406 5.013344 2.290725 -2.007195 0.517783 -0.049603 -6.311587 0.573819 0.136481 -2.233434 -1.757408 -0.548526 3.535349 -1.274535 -0.015935 0.234796 -2.484798 -1.566140 -2.968723 0.356559
states -2.000489 0.987631 0.304827 -3.173671 4.986376 -0.296623 3.107401 0.296945 -1.736924 -2.745225 -4.424567 1.439176 -2.007135 -0.966130 -1.116976 1.754699 -0.936186 3.995949 0.293039 -2.760882 4.705141 1.035553 0.433230 4.126538 -4.955220 -1.137631 2.276662 0.891353 2.095054 -0.707743 -3.161074 -0.826895 1.408233 -2.936562 -1.655367 2.070518 -0.571305 3.270698 -4.210415 0.497806 -0.993158 0.041474 -1.745899 -2.215546 4.040442 0.334369 -0.064405 1.304906 0.716788 -0.919309
people -0.095162 -0.867044 -0.525884 0.025228 0.321022 -1.188241 1.439972 1.186754 0.790856 -0.456549 -2.661830 3.701096 0.206023 -0.436324 -1.783224 0.684443 1.234228 0.093534 0.029347 2.054001 0.343826 1.190580 1.848526 1.781687 -0.341587 -2.302860 0.213036 0.940704 1.264278 -1.220211 1.030287 0.858080 -1.124100 -1.204484 2.853039 -3.446527 1.021948 0.994495 -0.208243 -2.748358 -0.322344 1.499401 -0.287571 0.406338 0.372294 -0.712885 -0.984426 0.333300 1.664019 1.652822
war 1.248204 0.242987 0.326993 1.918521 3.052169 3.853931 -5.535174 0.687353 -0.910262 1.104899 -1.786916 4.721857 0.721991 -4.406762 -1.953951 -0.289357 -2.613335 -0.658592 -2.363438 0.067789 1.679787 -0.445309 0.500447 3.642019 -0.315263 2.425051 0.739934 1.128472 0.726292 -2.570103 -1.754419 -2.437915 -2.464480 2.222392 1.898423 -0.801045 -4.815512 -0.396132 -1.753228 2.312192 -2.225477 -1.874415 0.742619 0.294567 3.487365 -0.747722 5.425385 2.116855 -3.309216 -0.178202
during 0.898930 -0.048258 0.957698 0.273235 1.159221 0.113665 -1.951308 -1.130716 -2.513496 -0.189432 1.851868 2.900559 1.711414 -1.884497 1.332126 0.984647 -3.101562 -0.115023 0.205079 -0.375956 1.571527 1.372413 -0.808514 3.333858 0.494828 0.829476 -3.561445 -0.811022 -0.643427 -0.874366 0.718396 0.295212 -1.413576 0.872408 -0.437278 -1.460443 -1.147602 0.435283 -1.126984 0.540208 -1.071398 -2.021444 1.297040 -0.767941 1.493610 -1.733493 0.954967 -0.472623 -1.392921 -1.443550
united 7.548764 -2.579056 -0.186022 1.942470 -1.078794 1.747048 -3.514951 2.376874 4.438437 3.897356 2.799569 -2.989872 2.021605 0.100852 2.755133 1.039661 0.751546 0.042844 0.695737 1.019760 1.432795 -5.399945 -3.411991 -2.870055 1.055781 3.220936 4.155054 -1.307536 3.699563 -2.076440 3.573121 0.855897 -5.863207 -0.086880 1.779593 -1.627721 -1.180441 -2.720448 -0.859044 -4.840987 0.844466 2.110323 3.297256 1.653093 1.607358 -2.044617 3.959872 -2.766654 -0.352226 2.471643
known 1.314172 0.937253 3.350681 3.333443 0.628983 -0.329060 0.983245 0.743509 -1.831000 -0.719162 3.300622 -2.113880 -0.287410 -0.335846 0.808858 -2.734168 0.191323 0.991282 -0.056868 1.556555 1.215882 2.908314 -1.330800 -0.199980 -1.436319 1.012819 1.642076 -0.437795 -1.055456 -0.361346 2.975064 3.024898 -0.437279 -2.716746 1.663512 -0.147114 -0.979441 2.061492 -1.770413 1.996375 2.506881 2.339324 1.001067 -4.432127 -3.451227 2.046180 -2.131555 -0.201117 0.361406 0.607360
if 1.069184 0.143064 -1.907135 0.421827 -2.314958 -2.407234 3.284871 -3.305867 -1.446941 -0.262454 -2.229548 -0.876887 1.605891 -0.876499 0.594199 -2.821192 4.229836 -1.871539 -0.751322 0.904288 0.286823 0.861190 0.998126 0.273090 2.071183 4.237996 2.829980 -3.219046 0.757876 4.896376 -0.620361 0.468088 0.907366 0.678450 -1.309375 -0.086732 -1.148233 -3.120170 2.211123 -0.432722 -2.613616 3.046258 0.671667 1.365489 2.358407 1.835264 -0.946607 1.229303 1.680129 -2.144987
called 1.406350 0.195483 1.404824 0.393952 -0.376644 -0.899836 1.889033 -0.702103 -0.723563 -0.576696 2.137640 -1.442778 -1.175666 -0.377860 -2.035448 -1.709734 -0.115106 1.166035 -0.530508 -0.222220 -1.136492 -1.096417 -1.325763 1.530224 3.377328 1.671764 0.404662 1.263370 -0.906438 2.504621 0.359159 1.862973 -0.933473 0.840283 0.263854 1.102288 0.517519 1.572800 -0.577339 1.325117 1.801331 1.733705 0.514046 -0.084101 -1.086529 2.229386 -2.303039 2.946110 -0.150290 2.689666
use -1.175918 -0.827226 -0.349405 -1.863986 0.995612 -1.958815 0.517587 1.337114 -2.602377 0.099143 1.754774 0.164905 1.330035 1.870822 0.663418 -0.354185 2.420989 2.920267 -2.994591 0.228740 -0.529515 0.732148 0.526917 -1.231926 -0.520458 0.417372 1.700116 0.216246 -0.352264 1.387384 0.343564 1.474384 0.686490 0.772783 0.950351 -0.603563 -2.280061 -0.585482 0.479691 0.802546 1.531536 -0.852292 -0.267217 1.870665 0.656146 1.834586 0.302465 0.140457 2.025759 1.496340
th 0.225435 -1.906805 3.154445 -1.539615 -1.323233 0.237843 -4.622673 -2.271103 0.182934 -4.296838 1.955801 0.199488 0.918678 0.446606 -0.427672 5.304468 -4.204366 2.379808 1.295796 -4.241277 0.896728 -3.707191 3.071115 -0.072186 0.225366 0.636466 -0.833700 0.223292 2.246168 -3.399225 3.827782 2.595781 -3.745993 -0.206820 -1.516779 -1.865818 -3.892410 -0.067846 1.041106 2.351950 -0.687763 -1.739882 -0.080358 -1.984825 0.246982 2.107701 -2.476749 1.097215 0.284059 -1.861520
system -0.174885 -1.065659 0.617698 -2.787258 0.654595 -1.262068 1.257038 1.915761 -1.444084 -0.366553 1.182354 -2.665758 -1.272964 1.819821 1.139337 1.956192 1.596894 0.498527 0.447543 1.245318 1.700098 -0.340227 -1.666741 -3.130249 1.682705 1.637631 1.028602 -0.170693 0.195009 2.016518 -0.795698 0.605773 1.951172 2.159400 -1.848439 0.990365 -1.148572 -0.105294 -1.190557 1.504092 1.344327 -0.356588 -1.093028 1.935518 -0.419755 0.940659 2.139576 0.179976 1.382762 0.654480
often 0.998321 -0.374106 -1.826091 0.253623 -0.894903 -1.297197 0.805393 0.619553 -2.633862 -1.084049 1.353569 1.850180 1.701076 0.033543 2.401953 -2.925303 1.541571 2.273909 -0.987243 1.344222 -0.930942 0.949465 1.521391 -0.555216 1.027205 1.213313 1.287721 1.907535 -0.102827 2.097326 1.554872 -1.962916 1.293868 0.704270 -0.411102 1.743060 0.296851 0.934232 0.226400 -0.343747 1.826337 -0.634561 -0.777174 0.862162 -1.555582 -0.457102 -3.081828 1.778117 1.479729 3.165432
state 0.594021 0.604083 -1.308843 -0.513950 0.534704 -1.640223 -0.470732 2.413202 1.375659 1.296269 -1.208609 -1.124134 -0.387009 -0.413510 -0.133067 4.160651 -0.076899 0.327843 0.845277 2.737746 1.246019 0.061112 -0.687953 -0.227135 -0.014862 3.166978 2.625800 0.413919 0.451079 0.526502 -0.799820 1.353789 -1.313848 -1.290216 -1.569082 1.387457 0.007834 0.956941 -1.145279 -1.864256 -1.257094 1.112568 -1.873039 -1.543066 1.694597 0.627816 2.038229 1.011688 0.098724 0.545397
so -0.246112 -1.662393 0.139473 -2.063291 -3.830891 -0.042326 2.854556 -0.379593 -3.085599 -0.576973 -1.677527 0.120725 0.154285 -0.865475 0.551753 -2.741508 1.364967 -0.988910 -1.962918 -0.254172 0.542099 1.399169 0.999772 0.851917 1.426404 2.110106 1.159804 -1.604227 0.305750 2.530328 0.061972 -1.424153 0.621518 -0.600943 0.277884 -0.372467 0.621152 -1.453949 -1.196142 -0.182900 -1.636817 -0.565867 -0.728604 0.679226 1.433198 1.155954 -2.451545 1.093947 1.662842 -2.239694
history -2.190655 -3.281273 2.546256 2.765491 0.802798 1.329499 -1.526039 -0.871756 1.931525 1.104324 0.336959 0.067985 -1.413734 1.719861 -0.754785 2.791281 -1.191918 2.374845 -0.588954 1.359126 -0.842640 2.239625 -0.478933 -0.166120 -0.481678 -1.529226 1.123020 -1.286215 -0.951605 -3.743680 0.637132 -1.908655 -0.961331 1.034488 -1.630741 -0.768538 -0.180461 -0.027019 -1.877879 0.716547 1.887419 0.291699 1.007807 -1.326675 -0.296524 -2.783830 0.282231 0.602757 0.011504 0.169361
will 2.049722 1.873430 -3.154398 3.506702 -1.625196 0.541621 4.275418 -1.646031 -1.863209 -0.723764 -3.615936 -1.436691 -0.205654 1.245691 -0.557755 -2.458709 0.620600 0.848355 -0.424918 -0.199615 0.644647 1.081929 -2.652895 -1.550777 0.182346 -0.917478 1.023794 0.886465 -1.374822 4.188635 0.969248 1.967022 1.335274 3.253631 1.292101 0.219339 -3.331041 1.046042 2.095497 -5.331800 -1.559237 -1.032253 -0.331456 0.765434 1.424561 2.839129 1.059705 2.088234 -1.224958 -2.544705
up 0.906301 -0.631891 -0.366576 -1.713606 -0.806279 -0.611321 -0.244999 1.144492 -0.891987 -1.433963 -1.660880 0.120317 0.853785 -1.191232 1.254705 0.582211 0.765101 -1.401689 -0.983695 -2.164234 -0.721640 -0.318583 1.098202 1.027196 0.517541 -1.011954 -3.005556 -2.370277 -0.700696 2.137017 0.688759 0.763789 1.081179 1.559107 1.078347 0.638228 0.566378 1.165520 1.472136 -1.281620 -1.791105 0.994158 0.387061 0.968783 0.404777 2.358528 1.065001 0.741924 -0.944154 -0.510403
while -0.185441 -0.411487 -0.371529 -0.885107 -1.589712 -0.783993 -1.046826 -1.577733 -1.437281 -0.059929 0.715690 0.611687 0.838149 -0.123777 0.314483 -2.303917 2.133478 -0.509216 -0.067218 1.371414 0.172835 0.614360 1.337170 1.309018 -0.965373 0.542642 -0.071191 -0.983130 -0.048319 1.133524 1.530827 1.077216 0.263490 -1.148298 -1.266893 0.366819 0.570307 -0.277610 -1.224937 -0.727450 -1.064282 1.101061 -0.160745 1.735254 0.817108 -0.609422 -0.888444 -0.613587 0.172344 -0.159394
where 2.409207 -1.549003 -0.289297 0.017372 -1.654714 -0.211777 -0.386335 -1.741025 -0.676855 0.381275 1.774764 0.019678 0.685006 -0.840106 0.675351 -1.230121 1.633853 -1.615259 0.006201 0.261402 -0.708997 0.310514 1.882103 2.601949 0.867442 2.004523 1.301036 -2.644902 1.608887 1.446957 0.190411 1.541228 1.017558 0.190902 -2.838499 2.478127 0.833441 -0.192102 -0.313122 -0.333098 -0.074827 3.039099 -0.694103 2.436605 0.479569 -0.165734 -1.307950 1.557584 0.452358 -1.618954
city 0.361914 0.481651 1.505123 0.673613 0.201003 0.055327 -0.899818 2.727803 1.861834 0.368209 -0.819789 -0.159272 0.380974 -0.592241 -1.139554 4.412749 -1.630240 -1.795991 0.071111 1.323454 0.274799 0.566402 -1.949792 -0.100499 -0.042314 -0.187792 0.040753 0.319636 3.500300 -0.952281 1.026520 1.585571 -0.018507 -2.286919 -1.423954 1.806795 0.348480 2.222329 -3.056352 -0.211261 0.546202 2.623330 -0.678666 0.155209 -1.409029 0.482884 -0.942700 1.190523 -3.645014 -0.566745
being 0.555517 0.920874 -1.132291 0.163441 -0.300590 -1.401268 -0.270455 0.197977 -2.278405 -0.434872 -0.729920 -0.530138 0.060937 -1.359652 -0.009445 -1.178703 0.236674 -1.221193 -0.856399 1.105437 -0.901325 1.447212 0.009245 -0.549372 -1.223453 0.538998 0.522695 0.832916 -0.104187 1.288061 1.668536 -1.229777 0.946519 -1.277953 -0.128088 0.293145 -0.502239 0.140418 -0.041596 -0.003269 0.283916 -0.216074 1.028980 0.951110 -0.844291 -0.044418 -0.787625 -0.283200 -0.584477 2.219872
english -1.128266 0.856517 2.389579 1.691689 1.751661 -0.448448 0.132734 0.762567 1.308388 -1.578131 1.524003 2.420522 0.374956 0.417256 -0.357804 0.292322 1.412453 2.750016 -0.510320 -1.394102 0.097446 -0.930907 2.539906 -0.158570 -0.742659 -0.836353 3.720878 0.665363 -1.040897 -3.053842 -1.323939 1.158791 -0.564883 0.097936 1.328994 1.297438 -0.372831 -5.608541 -1.001691 0.264970 3.550256 0.162585 0.577632 1.466038 -1.805292 -1.356726 -1.593183 1.399535 -1.758639 0.413405
then 2.489429 0.337500 0.370510 -1.797941 -1.237709 -0.710281 -0.264408 -1.030671 -0.640128 -1.870697 -1.080187 -0.837723 -0.088978 -2.022937 0.107369 -0.786820 -0.152749 -1.392229 -0.478151 -1.705597 -0.879963 0.805023 0.409318 -0.200939 1.834959 1.541642 -0.705448 -1.757373 0.491262 3.287845 -1.566059 -0.282236 1.405915 -1.288923 -0.503429 0.383817 -0.714164 -0.505769 0.988756 -0.670706 -0.608594 1.593109 -0.155966 -0.050198 1.443222 1.206655 1.134218 2.003665 -0.241429 -1.633367
any -2.707630 1.553819 -2.205439 -0.173198 0.806284 -3.963466 2.497131 0.131346 0.258081 1.067139 -2.167102 -0.172164 0.012588 0.128124 0.971168 -1.698177 1.744483 -0.713865 -0.122922 1.205667 -0.832196 0.335371 1.042439 0.683429 -1.923780 3.197897 3.485230 -0.326028 -0.749982 1.985385 -0.676684 -2.831413 2.574439 -0.473294 -0.663492 -1.134786 -0.894872 0.344470 2.814226 -0.368333 -0.988807 -0.474790 -0.641703 2.423928 0.888914 1.629157 0.780833 1.431829 2.467016 -1.645278
both -0.103968 -0.152680 0.066804 -0.902125 -0.844425 0.124879 0.393171 0.514324 -0.841900 -0.008002 1.150042 0.579082 0.817618 -1.778192 1.718423 -2.112382 -0.632509 2.661153 0.767736 1.097640 -0.094870 -0.455137 0.428047 -0.491705 0.577405 0.277331 -0.554882 0.703254 -0.047918 0.422714 -0.187637 -0.364805 -0.037173 -1.347263 -0.326071 -0.272957 -0.565351 -0.413240 0.290380 -0.579647 0.039299 0.393603 -0.025034 0.357963 0.032182 -0.020601 0.275193 1.987441 0.151029 1.947872
under 2.062088 -0.001503 1.066682 -1.157785 2.360411 -1.227599 -0.446609 0.263499 -0.119628 -0.298744 0.415501 0.054460 -0.471121 -2.230183 -0.635692 2.423651 0.310737 1.214405 1.915949 0.870301 1.109748 0.341820 -0.797195 -0.079978 -0.225751 1.710828 0.357012 -0.665599 -1.124029 -0.342292 -2.892919 1.942840 -0.276988 -1.514739 -0.159547 -0.894406 0.824566 0.339041 0.028377 -0.775677 -2.114364 -1.751666 -0.569203 0.733980 -0.087924 -0.677411 0.868808 0.657871 -0.732736 -0.667717
out 0.582386 -0.207195 0.604472 0.129086 -0.401797 -0.664266 -0.779316 0.242786 -0.789149 -0.562810 -1.097175 -0.943787 0.188918 -1.810608 0.268701 -0.649504 -0.584476 -1.163419 -0.379448 -0.736121 -0.327789 -0.377847 0.467686 1.520799 0.230110 -0.004697 -1.229788 -1.566538 -1.020999 1.728376 0.008511 0.095136 1.151544 -0.461414 0.701823 -1.060167 -0.777628 1.120580 2.156638 -0.995722 -1.787772 0.086514 -0.337072 1.014972 1.175393 1.390309 0.828955 1.306633 -0.641068 -0.062576
made -1.431982 0.242540 1.271723 0.473260 -0.423152 -0.214331 -1.482853 -0.456654 -1.624564 -0.294109 1.443550 -0.597030 -1.401063 -2.153020 0.009373 -2.066298 0.476661 -0.481297 -1.603491 -0.939572 1.817469 -0.868283 -0.416550 1.550550 0.172991 -0.630044 -1.328150 0.289511 0.151215 1.629456 -0.354693 -0.509599 1.092046 -1.146868 0.233824 -1.006568 -1.207688 0.331802 0.079261 -1.935224 -0.190642 0.777364 -0.651192 2.008195 -0.582127 0.259930 0.198028 -0.222764 -1.705804 1.007064
well 0.605925 0.585923 1.127127 -1.162136 -0.642225 -0.510781 1.483613 2.888732 -0.891338 -1.666422 0.778924 -1.311424 2.029705 -1.182503 4.017166 -2.866538 1.482502 0.694209 1.535417 3.058258 -0.323491 5.413776 3.985605 -1.175704 -1.567336 0.498946 0.943303 0.431336 1.366243 -1.138113 2.331859 0.970950 1.711111 -2.407389 1.729204 1.089126 -2.374417 2.485269 0.395190 0.895929 2.404529 0.715679 0.428099 -3.809630 -0.682024 -1.400731 0.236696 -1.614901 -0.442568 0.628851
her 2.318560 -1.245716 0.580269 -0.143953 -4.468565 1.219307 -2.561191 -2.454255 -0.785832 0.411382 -1.609942 1.480687 -0.019264 1.934716 2.994601 -1.435541 2.222549 -4.400009 0.452135 -1.808011 -1.582486 0.503307 1.105862 1.244644 2.061154 -0.215226 0.306873 -1.632953 -1.739312 -0.103616 -0.898972 -0.576479 0.945053 -3.505117 2.558094 -1.763109 -0.063881 -0.645239 0.215563 -3.225399 0.043627 -3.445077 -0.555640 -0.788803 -3.279259 1.278132 2.234185 -0.703471 -3.693558 2.449311
e -1.124320 2.302183 -1.029020 0.092206 4.152057 3.793763 1.191450 -1.796486 1.731921 1.306463 1.944310 -0.832089 2.438466 2.128609 -1.415478 -3.161593 1.165531 -1.390385 -1.198908 2.909671 -3.804496 0.941469 1.085027 -0.486631 2.425308 -0.430608 2.885088 -0.799222 0.687440 3.075567 -1.803841 -0.207140 -2.149662 2.227349 -1.095327 2.312268 0.264421 -3.861798 0.477074 2.368562 1.276946 0.553478 0.578585 -0.832277 1.505753 0.804913 0.874956 1.352543 1.720361 -3.570126
number -0.808770 1.094933 0.061013 2.112815 0.959355 -1.576840 1.901666 -0.722182 3.120360 -0.443057 0.056554 -0.246145 -0.201174 -0.422160 3.653376 0.207937 0.291341 0.122276 -0.563531 0.838699 0.483299 -0.014821 0.131436 -0.763930 1.394943 0.976973 -1.871976 -0.004468 2.261954 2.386398 -2.676439 -0.350445 0.902925 1.384303 -0.620675 -1.343774 -1.753400 0.667551 -0.690289 0.544168 -0.687621 2.089158 0.571018 2.638955 -0.246926 1.890168 -1.477728 -0.700048 1.176772 1.394876
government -0.683413 1.893548 -0.564100 -1.789866 -0.198587 -1.736291 -1.635338 3.745154 -0.058005 0.607742 -1.765616 0.301715 0.564896 -2.787853 -0.467854 2.903113 1.373702 1.908623 0.140445 2.313596 2.566769 -1.913305 -1.404753 -0.605206 -1.132366 2.774584 0.386609 -0.644911 -0.425073 0.028846 -2.519817 1.205385 -1.723539 -1.157858 -1.617958 -0.037321 0.488971 2.500277 -2.076786 -1.792432 -2.209527 -2.522116 -1.449261 -0.795837 1.774139 -0.491612 3.422057 -0.843763 -0.779307 1.779814
them 0.088006 -0.118425 -0.356073 -1.746406 -0.758639 0.560631 0.409711 0.634899 -2.746053 -0.676122 -2.238025 0.179009 0.668880 -2.231169 0.585719 -2.255126 1.495939 -0.091059 -0.676577 -0.556726 -1.847573 0.157913 2.728029 0.312906 -0.077220 -0.329595 -1.184026 -0.887244 0.057761 0.885243 1.185933 0.400418 1.513676 -1.303417 2.154437 -1.915028 0.500078 0.504802 0.659204 -2.677915 -1.553361 -0.557670 0.347979 2.486637 1.606432 1.236395 -0.677735 2.007863 1.241995 1.406278
m 1.016665 0.773040 0.065354 0.596479 0.669957 2.345231 -0.366850 1.130186 0.434274 0.709298 -0.939762 0.112114 -0.827984 1.290940 -0.340862 1.656432 0.712408 -1.172256 1.423925 -0.523934 -0.937510 0.110024 0.103451 -0.042884 0.045852 -3.261364 0.968812 -0.219980 0.954695 4.653189 -2.728549 1.995682 -3.211030 2.167981 0.754960 1.628491 0.555962 -0.699406 0.108830 5.061643 -1.298102 1.333669 0.305405 -0.324733 -2.437841 0.710519 -0.199826 -1.163578 1.959489 -3.909072
later 2.240617 0.240657 2.780632 -1.577537 -0.902685 1.109397 -0.331245 -0.754947 -1.211057 -0.285705 1.407423 1.513209 1.283277 -1.982481 1.583056 -0.153736 -1.380043 -2.743770 -1.124273 -2.437142 0.448433 0.570088 1.218395 -1.023074 0.869291 1.639210 -3.154754 0.057580 -1.355684 -2.131135 -1.273464 -2.327860 0.363080 -1.198338 0.638996 -0.126167 0.233869 0.059305 -2.100275 -1.932000 -0.014862 -1.938180 1.362257 -0.259593 -0.500550 -0.169182 -0.533106 -0.731735 -1.367869 -2.321067
since -2.056580 -1.919657 0.809209 -0.566417 -0.337512 -0.409368 -0.463739 -0.578067 0.883734 -1.734668 -0.117705 1.204851 -0.604280 0.682778 1.738343 0.666583 1.192319 -0.019985 -0.468639 -0.221692 1.701059 -0.137317 -2.924796 -0.012535 -1.473522 0.206982 1.190658 -2.150512 0.991466 1.224269 -0.322967 0.975280 -2.375992 0.623325 -3.855994 -1.478135 -1.634030 -0.930465 1.703492 -0.358989 -2.386260 -0.597724 1.238656 -0.619535 0.912261 -1.368759 -1.463725 -0.912152 -1.815388 -0.013268
him 0.609604 2.060760 1.402477 -0.448118 -2.809803 0.441872 -1.520314 -1.118148 -2.915123 1.148661 -2.592948 -0.166287 0.303725 -1.521788 0.703824 -0.945368 -0.894923 -3.427889 -1.310356 -2.842563 -2.203555 0.131301 2.242458 2.135026 -0.180303 1.132613 -1.438488 -3.198838 -1.662203 0.883115 -0.742597 -1.876285 0.543379 -3.647338 4.711646 1.611583 0.755297 1.744031 0.819030 -3.965533 -1.912377 -1.628827 0.472207 -0.196199 0.186856 -0.371039 -0.150403 0.813246 -1.485922 0.716681
part 2.248457 -1.260646 1.956032 2.710920 0.749487 -1.330361 1.079567 1.835119 1.336890 -0.473476 -0.199650 -1.800969 1.146658 -0.627612 0.185640 -1.114746 -1.391106 0.642877 -0.041251 0.213781 0.550171 2.316045 -0.180139 -0.414697 1.470485 2.546506 0.922727 -0.145759 -0.710563 -1.151051 1.029275 0.995721 0.244662 -1.822451 -1.789640 -0.966737 -0.070785 1.380000 -1.809784 1.688471 -0.005572 0.639658 -1.570469 0.236361 0.224717 0.335681 -0.255067 0.090651 -1.237561 -0.655353
name 1.345734 0.070498 2.262097 -0.502436 0.971756 -4.483615 0.419598 -0.014491 -0.198993 0.910260 -0.153591 -0.640167 -0.180093 3.914981 -0.987035 0.138930 2.383692 0.287943 -2.144854 -0.532674 -1.478000 1.491534 -0.648548 0.464759 0.468120 0.332960 0.184582 0.079234 0.348190 0.572052 -2.179539 0.459861 -3.536956 -3.163451 1.907733 0.157707 1.823410 0.536465 -1.886758 1.291892 4.000600 -0.893712 1.757890 2.301821 -2.181918 -0.686581 -1.642910 2.274975 -2.561510 -0.758046
c -0.409072 1.373587 2.021500 -1.848582 0.156030 1.571066 1.656744 -2.471510 2.517235 -1.714512 1.438559 -0.078157 -0.332207 1.602969 0.636895 1.251558 -0.023233 1.850470 1.012659 -1.469014 -0.920055 -0.579811 0.519294 -1.748857 2.628893 -1.992437 2.024196 -0.063047 -0.485524 2.089784 -1.799944 0.688205 -0.336194 -0.128804 -1.583916 2.618045 -1.904631 -2.806779 -0.449330 3.898014 -0.321835 2.821790 0.117165 -0.989247 -0.681372 -0.191970 -0.255998 -1.468572 2.299087 -3.144941
century 1.234558 1.793528 5.413197 1.873747 5.059501 -0.707689 -6.038215 1.084084 -0.279699 -1.418225 -0.293542 -3.026455 0.775650 1.892609 0.442098 1.728393 0.346078 0.467656 -3.502067 -0.304317 -3.123247 0.767894 2.822772 1.068973 2.000881 -1.290519 -3.985443 -0.239571 4.610426 -2.503633 1.908329 -1.800568 -2.849055 1.215050 -3.270881 -1.664509 -3.118955 -4.233094 -2.021504 -1.513017 -0.889770 -1.194954 -1.687365 -2.861287 -0.117499 1.127365 -3.563001 2.194034 0.867270 0.836551
through -0.203518 -1.158620 -0.657597 -1.082038 -0.173249 0.050041 0.068151 -0.809038 -1.322367 -0.971443 1.083411 -1.829889 0.471865 -1.408018 -0.362298 -0.040293 -0.770615 0.244289 -0.551070 -0.494091 -0.183600 1.985529 -0.463323 -0.189431 -0.223070 0.443540 -0.817261 0.048512 0.365670 0.821612 0.747705 0.579273 0.353319 0.420706 -0.844215 0.636258 0.690024 0.753223 0.681281 -0.239053 -0.874775 -0.683449 -1.231158 1.027435 0.130390 0.556700 1.612083 1.397665 -0.135555 0.810604
because -1.030251 -2.268641 -0.834909 -0.270044 -1.896454 -1.798548 1.193696 -1.006293 -3.148702 1.095161 0.052141 0.972793 0.293384 -0.067115 -0.345636 -3.267108 1.475704 0.184770 -2.205944 0.949618 0.706962 1.720750 0.593846 0.297537 1.174300 2.282380 1.661636 -1.462560 -0.306675 1.644564 0.845820 0.172310 -0.972028 -0.302055 -2.213333 -0.225828 0.233520 0.185451 0.248341 -0.033295 -2.188283 0.746313 -0.434159 2.937295 1.255419 -0.434368 -2.159806 0.131216 -0.108487 -0.407275
x -0.189483 1.805045 -1.312621 -1.521134 -0.408402 1.883658 2.235274 -1.192389 -1.257291 -0.908793 -1.319902 -2.408068 -0.079003 3.653029 1.472700 1.113793 0.948010 -0.753561 3.697050 -1.106735 2.654258 -0.820637 -1.047791 -2.759644 1.731658 -0.694018 0.448095 -0.582470 1.356712 6.343718 -2.741231 0.391638 -1.226525 0.719595 0.053247 0.382603 -2.002821 -1.783923 2.445172 2.677015 2.159492 3.782943 2.598869 -0.516704 0.031814 2.972197 0.247136 0.989620 3.506541 -1.402888
university -1.465268 -1.775864 2.171019 2.553208 -0.650300 -0.089934 -3.523796 0.769400 1.896387 -0.152647 1.805881 0.186027 -4.188448 1.897961 0.458784 2.764891 -2.750883 -2.619929 2.326937 0.122080 -1.835795 -2.295238 2.156265 -1.516852 -2.114808 -1.580570 1.820778 -0.726403 -0.645266 -2.067676 -2.350951 0.930596 -0.818708 -1.227542 -1.776081 5.059122 0.634668 1.684083 -2.043880 -1.315615 1.109268 3.579834 -1.487700 -1.256398 1.493438 -1.371933 1.486318 1.237135 1.605042 -2.001907
early -0.415021 -1.817886 3.474858 0.267876 -0.198044 0.778316 -2.765549 -1.326985 -2.069145 -2.559057 1.484070 1.668569 1.924578 1.547296 1.578584 1.404551 -1.687220 -0.806183 0.432698 -0.527311 0.499101 1.006056 1.565902 -0.761868 0.860029 -0.704327 -2.827097 0.746020 -0.350755 -2.785991 1.830449 -0.707135 -1.348750 -0.228025 -1.496447 -1.413337 -1.730711 0.609355 -0.464779 -0.163558 0.778833 -1.739933 -0.516496 -1.607944 -2.184762 -1.187713 -0.294210 -1.592297 0.043141 -0.561920
life -3.207028 -2.129766 0.354562 2.047381 -0.925910 1.790918 -0.385780 -2.992397 -1.628267 1.719185 -0.831699 0.592521 0.658571 1.262765 -0.108935 -0.944543 -1.223238 -2.379130 0.632508 0.040324 -2.400480 2.584983 1.102726 -1.533951 0.349670 0.605429 -1.337259 -0.868051 -0.151430 -0.493636 -0.198644 -0.275407 0.965152 -1.205432 0.953826 -1.152265 0.514595 1.582771 0.811348 -1.699901 0.103666 -0.579894 -0.466939 -1.524730 -1.866252 -1.273801 -0.693821 -0.742890 -1.185679 0.850423
british 2.668199 1.278566 2.996225 -0.677684 1.910696 -0.930762 -3.345561 1.350946 1.307599 -0.290813 -1.584219 1.594831 -0.519027 -2.313666 -0.055844 -0.159031 -0.235633 2.928132 0.220980 0.448181 2.539373 -1.719425 -0.474921 1.238928 -1.099615 -0.142521 1.191386 0.757462 -0.758972 -3.899390 -0.333144 1.228993 -0.791617 0.662465 1.609176 -0.838047 0.297785 -1.471086 -1.920575 -0.495146 -0.473902 -0.004936 -0.427080 0.367812 -0.613663 -2.478378 1.707143 0.439940 -0.960185 0.217926
year -0.254043 -0.941922 -1.390867 0.195355 1.052666 -1.930605 -1.163989 -1.161612 0.573610 1.899271 -1.693333 1.665519 -2.135857 -1.062948 1.973437 2.501554 -0.967063 -1.857165 -1.028763 -2.534068 0.112755 -1.479970 -2.106227 -0.411038 1.901238 0.887589 -6.146091 -1.392544 0.904725 0.191013 0.036133 2.907013 -0.707308 -1.020066 1.592800 0.989098 -3.890588 -1.098610 -2.469361 -1.456043 0.752632 0.010957 2.532120 -3.399471 2.660544 1.114393 -2.186984 0.146965 -2.745931 -0.402731
like -1.613343 0.270729 -0.078737 -0.307507 -1.951002 2.044219 1.752029 -0.126583 -1.156314 -0.617697 1.630088 0.360802 1.268411 0.572424 0.520956 -2.135211 2.290830 -0.143662 -1.597091 0.585146 0.207914 2.244391 1.890725 0.270699 0.885800 -0.326049 0.718838 0.915244 0.038546 0.695055 0.650465 -0.775926 -0.013958 0.640119 1.688018 0.151764 0.923979 -0.026842 0.245135 0.433393 0.068771 0.764194 -1.096069 1.979691 0.378409 1.224599 -1.359544 1.258472 0.156230 0.273454
same 0.943981 -1.580479 -1.032837 -0.676397 -1.836829 -2.503129 2.844400 0.539614 0.086252 0.934845 0.105444 -0.414256 -1.618474 -0.837687 3.795440 -2.107649 0.533347 0.995975 1.698703 -1.469923 -1.720919 0.931361 0.784180 0.143514 -2.507828 2.691195 -0.677553 1.463764 -1.502532 1.995115 1.423958 0.087404 -0.438460 -1.185453 1.956462 -0.808192 -1.463185 -1.106661 -0.375014 0.639983 0.801356 0.740702 2.778770 0.632219 0.669194 0.201652 0.370588 1.845903 0.849632 -2.368686
including -1.744939 1.160808 -0.990238 -1.183502 0.902922 2.665453 0.157352 0.006658 1.463421 -0.026399 2.803641 -0.510923 0.214281 0.640773 1.382592 0.366639 0.790681 0.303938 0.595422 2.357251 0.589779 1.473195 0.452761 0.977665 -2.133504 -1.773517 -1.102188 1.065526 0.524418 -1.805425 -0.971835 1.540733 1.236572 -0.122464 0.126013 -0.479880 0.985504 0.844407 -1.724309 -0.462717 -0.674278 1.400730 0.073958 0.853219 0.302502 -1.023745 0.123145 -1.075354 -1.188744 2.895120
became 3.446457 2.796083 2.760980 -1.379156 1.253921 -0.775750 -2.572391 0.696818 -1.508214 2.064396 2.120736 2.284578 -2.960999 -0.155482 -1.767589 0.037641 -3.203348 -2.325700 -0.492833 -1.673894 1.351714 1.427999 1.705698 -2.083960 3.199320 -0.788615 -0.791620 -0.253412 0.549408 -2.851185 0.923333 -0.303532 -0.573521 -1.567456 -0.328321 -1.238736 -1.378281 2.704429 -0.990275 -0.546982 1.128591 -1.059970 -1.457026 -1.816126 2.856705 -0.252832 1.231532 -0.772600 -4.560318 0.386630
example -0.991633 1.348352 -0.959923 1.111730 0.769026 -1.863125 1.901029 -0.720081 -0.933873 0.369347 0.349427 0.093399 0.795449 2.686174 -1.304634 0.235800 3.284944 0.403842 -0.495041 -0.150890 -0.533789 0.313214 0.010863 -1.381226 1.361123 1.090461 0.268150 -1.359715 -0.199549 2.551783 -0.794401 0.523391 2.426846 -0.155626 2.701919 1.067729 -3.975400 -0.780950 1.028031 1.687580 2.379377 2.110828 1.209678 1.537930 -0.616243 0.007840 -0.473966 2.105438 3.540567 2.927287
day -1.104011 -0.408711 -2.243232 0.833404 -2.745484 -0.379779 -1.001433 -1.388388 0.489388 1.644673 -1.664995 1.084850 1.134575 -0.632378 -0.787321 0.348410 -0.742462 1.515038 -0.250214 -2.038757 -2.386301 1.053737 -3.229336 1.230323 2.112823 1.947635 -3.211797 2.141407 2.624403 -1.702579 0.701812 0.936925 -1.174002 -1.793955 -0.279780 -0.631978 -1.767164 -2.271118 -2.982938 -1.902991 2.445646 0.494922 0.534853 -3.914426 3.307445 -0.797378 -0.496930 0.860922 -1.980853 -2.225943
each -1.371377 0.852801 -2.760100 -1.900478 0.169704 -2.849844 2.854496 -1.369941 3.585962 -0.440785 -1.170178 -1.071865 -1.866627 -1.036250 2.155671 -1.045242 1.543537 1.037485 1.450995 -1.338670 -1.484802 -1.173557 1.048851 -0.855137 -0.906772 0.460622 -1.938220 -0.178542 1.394809 4.655093 1.882993 0.709230 2.761090 0.495481 -0.905194 0.084074 -1.401320 0.082896 0.049455 0.590525 0.858197 0.118261 0.678536 1.315254 1.907874 3.572805 -0.153816 2.256070 -1.156729 1.179451
even -1.260234 0.653165 0.835739 0.366186 -1.296060 -0.587589 1.923810 0.617454 -2.178403 0.171967 -0.048357 3.239000 2.021866 0.240961 0.313568 -1.320085 1.238348 -1.477825 -0.224248 0.339573 -0.412882 1.603422 -0.896740 -0.182639 1.225843 1.006657 1.076368 1.666213 -1.537242 0.886646 0.722182 -1.368902 1.937779 -1.168890 0.253461 -1.163607 -1.464048 0.520429 1.676229 -0.257202 -1.156780 -0.298711 -1.396370 1.321553 0.397062 2.252187 -1.118459 1.342267 0.837246 0.880192
work -2.620521 -0.499249 2.014576 0.307554 -1.996428 0.026427 -0.973752 -1.845974 -3.193862 0.015561 0.807020 -1.137260 0.662584 1.460239 0.565211 -2.261230 -0.934527 -1.002546 -1.423411 -0.593420 -1.561438 0.367613 1.993550 -2.081394 -0.934259 1.063591 -1.473942 -1.429548 -1.491522 -0.722355 -2.040561 -0.825478 2.856695 -0.402062 -0.138701 -0.470225 -0.022832 1.010814 -0.495710 0.263247 0.053690 -0.760382 -1.011635 -0.950396 0.084569 -0.078282 -0.519704 -0.208394 -0.151049 0.875143
language -0.782520 -1.345412 2.486717 1.555329 0.598798 -3.633123 3.051037 2.036287 1.772529 -1.982054 2.098871 0.337224 0.011036 2.495704 -0.820492 1.053822 2.698819 1.216478 -0.511516 0.531242 -1.110618 1.700427 3.372939 -2.721646 0.210660 -0.712558 2.648185 0.507210 -0.659664 -1.790494 -2.569189 1.014850 0.158049 1.280608 -1.493283 -0.392114 -0.955953 -4.228173 -1.955700 0.644097 2.973524 -0.667003 0.785655 2.176241 -1.428875 1.284903 -0.910208 0.081272 0.974243 1.883801
although -1.898247 -0.589069 -0.290555 -0.844681 -1.466788 -0.685921 -0.214387 -1.148636 -2.383949 -0.460833 1.089974 0.887877 0.162025 0.884245 -0.517026 -1.499304 3.206738 -0.197994 -1.222748 1.795234 0.686802 0.967017 -0.230837 1.874476 -0.963264 2.156188 1.106234 -1.386424 -0.525370 -0.551219 2.036344 1.553955 -0.817727 -1.322335 -2.961200 -0.164336 -0.722412 -0.550349 -1.490827 -0.325912 -1.509086 1.137711 0.210603 2.027518 0.883763 -1.175748 -3.254569 -2.037868 -0.073363 -0.253148
several -1.538333 0.950513 0.496727 0.345250 -1.502783 1.035951 -0.388971 -0.646270 1.649602 0.091101 2.755100 1.340494 0.760288 -2.534008 3.191050 -0.876008 1.026945 1.267603 0.419087 1.602547 -1.771165 -1.022991 -0.254865 0.333953 -0.492731 -0.083739 -2.463570 -0.742791 1.700280 -0.935723 -0.574506 -2.070722 1.188228 -0.381909 -1.354692 0.460294 -1.205557 2.503146 -0.589232 -1.230872 1.817105 0.302079 1.999888 2.586418 -1.299465 1.435793 -0.336759 0.043214 -0.474831 1.921520
form -0.156125 -0.095534 -0.761183 -0.434495 0.361948 -0.707336 2.458500 -0.048681 -0.050036 -1.146454 0.499247 -0.651698 0.804762 1.315732 0.220223 -0.482687 1.963125 1.884752 -1.836275 -1.278748 -0.499058 2.359730 0.376238 -1.313151 1.582002 2.519192 0.724633 1.562221 -0.282739 2.658628 -0.369936 0.435395 -0.743568 0.424987 -2.594264 -0.271467 0.359785 0.190286 -0.700469 1.573746 2.695243 -0.057109 -1.134222 0.803977 0.032960 0.398775 -0.857266 1.936268 1.089343 1.618644
john 0.218456 1.885391 2.535592 -0.461029 -0.212446 1.800818 -3.036397 -2.528030 1.207270 -0.500727 -0.558157 -0.588623 -0.234579 1.423994 0.766407 -0.135476 -1.165965 0.484737 1.062463 0.354130 -0.164775 -2.497844 1.240194 -0.746485 -0.800552 -0.784436 -0.268183 -0.390475 -1.916212 -1.000741 -2.093992 -1.461224 -1.997154 -2.021007 2.392579 0.722122 1.778067 -0.493924 0.086459 -0.974666 1.035507 1.932627 0.648724 -2.630248 -0.525157 -3.487434 -0.578482 -0.408894 -1.334756 -0.495507
u 1.316432 1.288689 -0.395007 -0.647075 -0.228603 1.046787 -1.149004 0.358613 -1.676317 -2.082125 -1.561323 0.619904 4.233651 2.593510 0.981554 3.629725 -0.075622 0.382648 0.043077 3.111690 2.879544 -4.243130 -1.192976 1.359290 0.618421 -1.233804 2.930493 -0.942532 1.959655 0.738262 -3.593470 1.479356 -2.189609 -0.130198 0.312727 0.760820 -1.007920 2.722858 -1.228696 0.772474 -1.952629 2.065868 1.334062 -1.177240 0.883053 -0.376605 3.968865 -1.569102 -0.887281 -2.168583
national -0.423400 0.075963 -1.684819 -0.475856 -0.558846 -1.996236 -0.986356 1.237836 2.697676 0.396771 0.092749 0.811489 -1.718086 -1.561200 0.006403 0.890431 -0.188830 1.112891 0.691564 2.087639 1.360633 -2.738910 -2.309923 -0.439813 -1.435289 -0.200221 2.266697 0.279815 1.237665 -2.483621 -0.350437 1.529024 0.033237 -0.189091 -0.750616 0.855063 1.666329 1.546895 -3.035343 -0.286834 -0.416967 0.028083 0.097082 -3.526125 0.680140 -2.327709 2.301985 1.004482 -0.026854 0.121099
very -1.928902 -0.818634 0.507504 0.239832 -1.509065 -0.256665 2.813507 0.403096 -2.252664 1.387244 0.782037 2.383757 0.298047 0.841134 1.517810 -4.245010 -0.859081 0.292362 -1.514774 1.524884 0.615164 1.481386 -0.534676 1.099792 0.747318 0.308509 -1.739120 -1.046217 -0.228131 1.473328 0.244303 0.423679 0.484943 1.388449 -1.273125 -0.287503 -1.077507 -1.433585 -0.621103 0.336377 -0.167663 0.362069 -2.286869 1.970479 -2.829594 2.107945 -2.760858 -0.236988 -0.228202 0.554677
much -2.561908 -0.552128 2.376617 0.814237 -2.013283 -1.138625 0.261171 3.062279 -1.480206 1.852278 0.383806 0.764144 0.765077 -0.263498 1.329992 -1.560509 0.300780 0.829006 -1.015589 0.260791 -1.592708 2.865263 0.549086 -1.922914 0.548923 0.965707 0.931724 -0.006819 -2.063277 0.681821 3.551605 -0.907783 1.286651 0.886510 0.538292 0.680326 -1.374099 2.092388 0.802443 -0.309213 -2.746989 1.120302 0.590569 0.604232 -0.127555 1.377134 -1.549640 -1.125891 -0.733739 -0.659469
g -1.314735 2.535431 -0.306091 1.031121 2.707062 2.612068 2.900240 -1.167636 2.020661 -2.615713 3.029234 -0.325329 3.021675 1.626192 -0.686781 -0.494685 0.160576 -1.243946 0.423642 2.356734 -2.975175 -1.586824 -0.880795 -2.149262 3.772248 -0.002768 1.330495 -0.190148 0.046096 4.144119 -0.553543 -1.618043 -2.281735 0.765045 -0.251076 1.974364 1.184947 -2.354380 0.006318 2.105203 2.150180 0.670747 0.122169 -0.424266 0.518282 -0.427577 0.715369 0.592023 3.195785 -2.442793
french 0.228054 2.532945 2.139390 0.557204 1.200031 -0.818852 -2.108249 2.038179 1.946165 -0.354198 1.985925 3.272238 0.668882 -2.687698 -1.691486 1.486238 1.413402 2.362212 0.897143 -2.055566 -0.341381 -0.842911 2.067447 1.046283 1.321012 0.046945 2.328697 0.287068 -0.070209 -3.286882 -2.343697 1.621686 -0.700401 -0.173072 0.016102 -0.282213 0.721675 -3.095498 -2.673189 1.257464 -0.026514 -1.307344 1.455376 -0.214485 -1.084271 -0.413662 0.586238 -0.045441 -1.904107 0.410920
before 0.600471 -1.174081 0.502427 -0.870835 -0.627620 -0.380145 -0.546735 -2.051274 -1.432764 0.387439 0.301004 1.649153 1.073968 -3.044357 1.019805 0.173316 0.388627 -2.681131 -1.398513 -1.419884 -0.089287 0.819732 -0.797340 1.778894 -0.020976 0.976418 -1.285091 -1.184963 -0.423264 -0.168119 0.184958 -0.474731 0.439716 0.085003 -0.213252 0.222277 -0.069358 -1.265683 0.648275 -0.709424 -1.537920 -1.964543 1.292523 0.057062 1.362118 0.328395 -0.317733 1.619209 -1.990732 -1.898776
general 0.972604 2.011055 0.294767 -0.201304 1.728801 -1.536852 -1.079348 0.374568 -0.230219 1.545948 0.489785 0.308396 0.781600 -1.115984 -0.328499 1.300365 0.691751 1.551735 0.769718 0.989449 0.876457 -2.503323 -0.004756 -0.371295 -0.198503 1.785025 1.100463 0.564887 -1.228232 0.625890 -1.268054 -1.000146 0.707190 -0.540385 0.072014 0.880141 0.053326 1.076576 -1.475634 -0.420890 -0.756904 0.484153 0.262020 -1.558460 1.490427 -1.730372 0.712588 -1.014487 1.737998 -0.383145
what 1.012766 -3.419224 1.667156 0.169876 -4.010298 -0.062840 0.435112 0.174961 -2.665760 0.540949 -3.153450 -0.801743 0.558756 0.090928 -2.538299 -1.753500 2.280195 0.145991 -0.225132 0.426373 -1.279512 1.248099 2.051764 -0.419442 0.435462 3.626398 2.303173 -3.633965 -0.063633 -0.159480 0.018271 -1.783025 1.413889 0.929206 0.741809 0.159275 0.743097 -0.941152 0.255962 -0.679827 0.064673 1.729980 0.204466 -0.661436 0.468754 0.523112 -2.497928 2.631071 1.181162 -0.207383
t 0.576404 1.310971 -0.015174 1.442760 -2.297996 1.009954 0.156840 0.928520 -1.570464 -1.420373 -0.454033 1.609219 0.221671 2.126700 0.155835 -1.486243 1.973423 -0.792712 -0.459872 -0.473099 -0.722006 -0.477777 1.595755 1.168388 1.203045 -1.640385 1.426059 -1.753800 -1.026917 3.208586 -3.783302 -0.382513 -1.368133 2.013672 1.171579 -0.600822 0.288710 -0.073324 2.815148 1.635927 -1.292063 1.498464 -0.201551 -1.542488 0.708778 1.230692 -0.821737 2.343221 1.118286 -4.086493
against 1.197204 2.546548 -0.545888 -0.444342 0.152764 -0.510100 -1.852666 -0.817559 -1.386157 0.031503 -0.021686 0.058187 2.096625 -3.082772 -1.596321 -1.058966 -0.477548 0.567293 0.986548 0.254270 2.883482 -0.762151 -0.083154 1.580722 -0.461781 1.872475 -0.845694 -0.086964 -0.763387 -0.183083 0.125241 -0.446619 -0.427367 -0.860996 1.738087 -0.452543 0.533208 0.203824 0.284373 -0.817456 -1.594854 -1.528864 -0.010784 0.858416 3.225222 -1.543161 1.408541 0.740924 -0.652003 1.373261
n 1.267265 4.003834 -0.387816 1.609967 0.705024 0.587480 2.330828 0.677635 2.658795 -0.107268 0.948077 -1.211880 1.194589 1.583765 0.214841 1.993807 0.935754 -0.011727 1.722069 -1.606132 -1.334580 -0.286320 1.447576 0.628295 1.437280 0.443277 1.149355 -0.250124 2.703517 4.820670 -4.137620 -0.014901 -2.273890 -0.275037 -0.880546 -0.786551 -0.023985 -0.445832 -0.340875 3.454240 -0.890369 3.252064 1.822734 -2.319115 -0.292869 1.696730 -1.034307 0.840491 2.131602 -2.610867
high -0.202806 -0.876794 -1.103160 -0.370312 -0.550399 -0.838451 0.886245 0.549412 -1.112674 0.043566 1.091310 2.388757 -0.641592 -0.219973 3.615947 -0.971050 -1.209958 0.230781 -0.157517 2.192171 -0.658732 -0.354166 -0.522718 0.543698 0.454114 -1.304824 -0.663682 0.023828 -0.305317 1.598165 1.151877 2.246226 0.473989 0.833542 -0.811550 4.244339 -2.411095 -0.384901 -0.515347 0.590827 -1.999181 0.146893 -3.902156 1.659296 -1.846907 0.204416 0.642217 -1.205034 1.068447 0.442816
links -7.345829 -0.433990 -3.680640 1.471636 -0.729998 -0.942267 1.497689 0.356623 2.463788 -2.471272 1.834118 -5.168003 -1.635253 0.273326 -0.828360 3.682194 -0.509912 3.993833 -1.034700 4.044945 2.283966 0.220514 1.794153 5.315170 1.246105 -0.461798 -1.251482 -3.406633 1.375015 -6.205596 -0.717658 0.079688 -1.590213 0.536765 3.269555 0.800799 -0.802138 -1.399832 -2.183412 -3.429225 4.700238 3.051581 -0.256042 -0.484895 -3.597570 -4.295601 3.775137 -3.373710 4.549546 -7.657269
could 2.470409 3.334090 1.417522 3.006694 0.647002 0.073110 2.245578 0.987860 -3.506775 -0.560775 -2.177819 -3.371086 -1.987890 0.344609 -0.673020 -4.950245 1.394711 -2.028096 0.302600 -0.173868 1.355579 1.224185 -0.782937 -0.837095 0.863517 -0.384805 0.185724 1.668958 -4.036056 -0.308677 -0.326441 -0.194484 -0.905812 2.045551 1.445843 0.034765 -1.889463 1.773083 1.222723 -4.764781 -2.875973 -3.258466 0.865211 3.310108 1.178283 2.652227 0.701488 1.210054 0.575947 -2.674741
based -1.398248 -1.743676 0.206091 -2.292014 -3.049697 0.566237 0.312086 0.065579 -0.309166 0.735949 1.340091 -3.990192 0.082238 1.077515 -1.146002 -2.687863 0.464784 1.040155 -0.307117 1.777915 1.447912 -3.538146 0.248682 -1.675778 1.579496 -0.018584 0.217839 1.606536 -0.918398 -0.727419 -0.144122 -0.474176 2.564384 1.619401 -1.579013 -0.696196 0.118597 0.346819 -2.512734 1.314075 2.711032 -0.567759 1.111397 0.767422 -2.498484 -0.588912 -0.022587 -0.429916 0.651370 -0.059683
those 0.656316 0.992839 -0.005785 0.029339 0.765321 -0.115107 2.016311 0.814151 -1.075750 -0.345232 -0.705425 0.651581 1.059740 -2.900831 1.589580 -0.977130 -0.644286 1.550966 -0.414402 3.508424 -0.059301 -0.364473 2.053330 -0.302029 0.014386 -1.607177 0.399740 0.447195 0.268980 0.372362 0.437372 -1.322994 0.525975 -2.365621 2.444698 -2.105571 -0.196811 -0.058417 1.625786 -4.007020 -0.305226 0.008083 -0.166741 2.146295 0.200864 0.521600 -2.712788 0.789422 3.757706 2.755427
now 1.921901 -1.095031 1.779758 -0.405961 -1.869807 -0.576426 0.645908 2.166424 -0.922770 -0.015113 0.045753 0.150504 -0.694287 -0.346205 -0.287867 -0.070624 -0.274445 0.878978 0.127382 0.862113 -0.604121 1.413175 -0.130743 -0.741714 0.149840 -0.128669 1.238575 -0.702035 2.546958 0.219397 -0.964988 -1.030312 1.017033 -0.223632 -0.980674 0.030325 0.361729 0.238741 -0.371201 -0.134972 0.781053 1.559651 -0.440305 -0.485720 -0.268666 -0.489563 -2.176816 1.780728 -1.741224 -0.129095
second 2.803670 -1.034403 0.525456 0.451336 1.779385 -1.431538 -0.797399 -1.578835 -0.099406 -0.485077 -0.268775 0.448481 0.297787 -0.362433 0.272708 1.469970 -1.911604 -1.328007 -0.736278 -1.158984 -0.106391 -0.838909 0.024270 0.528773 0.420633 0.720654 0.605609 -1.180952 0.005841 1.894542 0.581471 0.031903 -0.126660 -0.472603 -0.372434 -1.046468 -1.411451 -0.627820 -0.675893 1.751062 0.545171 -0.202336 2.675729 -1.244863 1.141448 0.469170 1.028910 1.593516 -2.782051 -0.791587
de -0.057061 2.363647 1.559343 1.541274 -0.790700 1.524190 -1.958168 0.042698 1.752223 0.234235 3.056758 0.268983 -0.056674 -1.726787 -0.897426 1.303530 0.695120 1.085422 1.207322 -0.866314 -2.525836 -0.642607 1.964632 0.390741 1.806659 0.714195 2.158408 -0.101205 1.416537 -2.110411 -4.755308 0.559846 -1.863893 -1.638889 0.057298 0.082616 2.564903 0.231151 -2.596732 2.840972 -0.029238 -0.747299 0.945818 -3.487472 -0.720644 -1.296948 -0.641342 0.133506 -1.143752 -1.369564
music -3.182624 0.292705 0.469507 0.932247 -1.705018 -0.599970 -1.556633 0.314233 -0.267104 -1.466825 1.113185 2.144802 -1.396226 4.333389 2.369099 -0.724941 0.957609 0.417516 -1.144390 -0.769135 1.092747 0.547413 2.410635 0.558868 1.353514 -1.236780 -1.507022 -1.182510 -1.626487 -2.532896 0.606671 -1.164626 0.552019 1.826075 -0.659260 -0.240687 2.482583 0.938241 -1.671573 0.585875 2.734616 2.250948 -1.758294 -3.142982 -1.424075 1.354075 -1.517067 1.863906 -0.760180 2.526187
another 1.030795 -0.275075 -0.240915 -0.978641 -0.469962 -1.681362 1.042569 -1.506370 -0.004768 0.986950 -0.399610 0.021253 0.642814 0.670488 -0.452803 -0.743672 -0.076599 -0.030367 -0.263719 -1.126866 -0.075341 -0.583305 0.572245 0.762677 0.011724 1.577532 -0.478489 -1.102992 -0.451838 1.361929 0.483672 -2.099428 0.891080 0.467194 0.133388 -0.284673 -0.249611 0.718497 1.020303 0.164442 1.465675 0.200700 0.228412 0.894367 -2.129495 2.335897 0.161668 0.905478 0.432064 -0.116939
large -0.174372 0.662961 -0.060051 0.245908 0.263272 -0.240069 2.022563 1.718981 1.253440 -0.348103 1.174942 0.587540 -0.103496 -1.228749 1.978435 -0.695230 0.283094 -0.009253 -1.695849 2.082078 -0.569480 0.663241 -0.363805 1.044864 0.909452 0.664310 -1.359050 0.671209 2.548887 0.232941 0.635683 0.637028 1.310196 1.501402 -1.529248 0.214072 -1.600477 2.144787 -2.229159 0.567064 -2.016231 1.278978 -2.463357 2.351321 -2.199878 1.305950 0.048296 -0.510699 0.346018 1.280731
she 1.436919 -1.489862 2.636866 -0.009684 -5.345850 -0.086610 -1.452993 -1.632057 -1.453869 -0.303560 -2.251936 2.615724 -0.888243 1.916524 3.381644 -1.335817 1.029032 -6.421971 1.068149 -2.547562 -1.017202 0.033990 -1.611910 2.477346 0.913950 1.685450 0.914386 -1.762916 -0.757162 -0.226732 -1.137851 -0.877912 0.204243 -2.355105 4.116843 -0.616707 -0.536148 -0.803558 0.316817 -1.140795 0.767035 -1.906529 -1.058184 -0.778503 -1.608617 2.617412 2.725359 -0.563406 -2.396763 2.044996
f 0.563349 2.719139 1.172915 -1.013750 -0.289368 1.169185 0.548680 -2.080335 1.248077 -2.027234 0.227109 -0.258277 0.610429 1.889459 0.569789 -0.063061 -1.114903 1.770431 1.458217 -0.714843 0.665361 -1.066825 -1.867751 -1.100013 2.114329 -1.298206 1.622535 -0.411872 0.002718 4.746844 -3.235259 0.277075 -0.739770 0.244140 -1.459944 1.522533 -2.052784 -2.101840 0.046396 2.883265 -0.620380 3.502607 1.675416 -1.760315 0.591207 -0.937566 0.991087 0.480333 2.433471 -2.625024
external 1.007593 -2.811960 0.404209 2.612986 -0.485606 2.351600 -2.050709 -3.091773 3.103420 6.198509 -1.564160 2.749323 -1.840915 3.461872 -4.675710 1.966950 1.753940 0.948798 1.954611 -0.988830 -1.099355 -2.435289 -7.738469 -3.976119 -1.107435 -5.051902 2.737259 2.402476 -3.396556 -1.774286 -5.334444 -1.969472 1.799340 4.824271 -1.556706 -0.756995 5.605698 -1.305303 -1.004979 2.956825 -0.783136 0.726318 0.368347 -0.059457 0.200799 2.935106 1.526888 4.037302 -0.643824 3.542361
german 0.262022 1.787951 1.755357 0.672841 2.309644 -1.511876 -1.696772 1.753542 0.871172 -0.363777 0.958332 3.043625 -0.118739 -1.736339 -1.393965 -0.072675 -0.208469 1.664336 1.174520 -0.107349 0.365802 -0.527086 2.099194 1.154855 1.482367 -0.757707 0.898775 0.004641 -1.751373 -3.900159 -0.555244 0.530054 -2.116349 -0.056350 -0.335541 0.620419 0.180181 -2.904725 -1.773892 2.424379 -1.136920 0.367461 0.336643 1.021864 -0.300040 -0.543950 1.282516 -0.573026 -0.587635 0.236455
different -2.077989 -1.110566 -1.632957 -0.007515 0.069987 -0.293941 3.356447 1.877295 0.939500 0.095628 0.731164 -0.617674 -0.219399 -0.344549 2.752603 -1.345976 2.034295 1.681523 1.004634 -2.166565 -1.596618 0.756639 0.411772 -0.698667 -0.547904 1.133970 -2.060339 1.741983 0.663178 1.489491 1.011581 0.413114 1.524833 1.246609 -0.643740 -1.101098 -1.570148 -1.517420 0.657016 -0.928673 0.760611 1.749118 1.593060 4.296191 -1.295283 0.498548 -1.952724 1.639529 3.272388 2.490228
modern -1.609613 -1.326558 1.731856 0.705675 -0.093593 1.596612 -0.318277 1.253002 -0.274219 -0.280654 2.613552 0.918949 0.475060 2.604499 0.047621 0.265961 -0.022639 2.572146 -0.055030 -0.238991 -2.342693 2.217045 -0.001755 -0.126374 -0.734136 1.077533 1.039474 2.672966 -0.411590 -1.035617 2.559359 -1.483292 -0.228648 1.067982 -1.989295 -0.687993 -0.931356 -1.330482 -1.977658 -1.248892 1.774132 0.763687 0.398154 0.287126 -1.147332 -0.769633 -1.089649 1.204492 0.585777 0.666144
great -0.098034 -0.021264 1.949355 1.392350 0.217353 1.863266 -1.797060 0.597377 -0.382228 1.269588 -0.933716 -0.814576 -0.628723 -1.340726 0.977533 -0.228278 -2.041346 0.302168 -0.059781 0.000438 -0.162600 1.747924 0.936502 1.739621 -0.052669 1.572690 0.162470 0.002067 0.125823 -1.467917 0.749270 -0.489314 -1.466529 -1.180835 1.098571 0.134888 0.666143 0.676654 -0.721199 -0.312117 -1.529549 0.354491 -1.178499 0.935859 -0.402521 -1.189988 -0.917717 0.820949 -2.228592 -0.067883
do -1.477008 1.477601 -1.800000 0.987274 -3.061067 0.946165 6.655753 0.743402 -3.172879 0.018382 -1.252641 1.899103 0.027308 0.344026 -1.201660 -2.359548 2.941572 -0.474026 -0.790865 0.225380 -2.475466 -0.016571 1.445640 -1.440674 -1.279521 0.648304 3.765314 -0.837675 -3.396224 -1.009419 0.776257 2.889812 -1.402019 -0.393037 1.013338 -3.373141 -0.143144 0.495661 4.238036 -0.420759 -1.446962 0.208605 -0.745118 1.155452 2.521488 0.898134 -0.888250 1.744974 1.800436 -0.622356
common 0.453908 -1.954971 -1.502182 1.360430 1.469934 -0.013091 2.483350 1.631969 -0.938326 -0.338074 3.207094 0.823670 1.053546 2.654215 1.022473 -0.351181 1.807577 1.923072 -0.486454 0.068020 -0.332235 -0.427683 1.984656 -0.301491 0.525993 0.091304 3.377762 2.006184 -0.089442 1.740788 2.517549 -0.047294 0.547052 -0.690856 -0.365644 0.214877 -1.432829 -1.547600 -1.513461 0.233000 0.705702 -0.010387 -0.811593 1.736006 -0.149573 0.475957 -2.225044 0.907195 1.242464 2.366856
set 0.802725 0.511464 -0.918782 0.141591 -0.049191 -0.322396 1.538192 -0.196576 -0.165435 -0.684936 -0.149118 -3.168963 -1.067553 0.464534 0.830982 0.168259 1.292245 -0.604442 -0.352573 -1.238039 1.552520 -0.893672 1.069297 -1.083151 1.974108 1.114010 -2.302599 -1.920473 -0.430927 4.871361 -1.660290 -0.637971 1.681220 1.135247 -0.980958 -1.752641 -0.336489 -0.347548 0.155438 0.494411 1.158207 2.786355 0.599515 1.281807 0.608158 1.309098 0.248548 1.546692 1.243370 0.588100
list -0.774451 -0.803001 -1.319165 3.304944 2.024535 -0.860381 1.006637 -2.283041 4.042958 2.715266 -0.287423 -1.101944 -2.316557 1.294604 1.360506 2.814287 2.290146 4.252759 -1.688908 2.147391 0.296204 -0.670576 -1.077003 0.724719 2.880883 -1.996855 1.023763 -1.213829 -0.731566 -4.306089 -2.515663 -2.681458 1.176930 1.284472 2.276855 -0.708240 0.807261 1.768937 -1.625307 0.975715 1.940010 2.617857 0.219392 0.412153 1.387676 0.639121 1.010232 0.619215 1.714028 0.950898
south 2.837972 0.384955 1.530922 1.445899 -1.294348 0.987875 0.731606 4.000264 2.369080 2.493921 -1.296593 0.725633 2.151899 -4.202264 -1.587536 1.327739 -1.372548 1.755324 -1.314512 -0.994272 0.812664 -0.696293 0.991736 0.957993 -2.621485 -3.185974 -0.120570 -1.093809 1.979910 -2.457268 0.832502 1.028207 -3.157729 -0.379223 -3.212807 4.436161 0.927861 0.996940 -2.128535 0.708489 1.023583 3.557242 -1.095877 0.484263 1.382804 0.660535 -0.018005 -0.195514 -1.271000 -0.165541
major -1.139446 1.002650 0.233494 0.750466 1.521063 1.396837 0.350540 0.713809 1.884283 -0.579197 2.401245 -1.221443 1.133761 0.043537 0.881738 -0.587461 -0.423663 -0.492281 -0.421082 1.898796 1.555712 -1.244493 -0.968184 -0.221101 0.032484 -0.490739 -0.299543 -0.545542 0.794721 -2.000584 1.094770 0.296613 1.920188 -0.203872 -2.048557 1.213928 -1.588913 0.998066 -2.132892 1.218009 -2.045575 1.379332 -0.104908 -0.974083 0.321195 -1.139151 0.878456 0.923421 -2.232265 0.404791
power -0.609579 0.814423 -0.747697 -2.561235 0.929782 -0.150776 -1.578307 0.727873 -1.494991 1.612478 -0.130472 0.005633 -0.364535 -1.029353 1.230621 1.153163 0.660645 1.027559 -0.235951 1.117698 1.888561 0.896813 -1.620312 -0.929245 0.924280 1.509403 0.802025 -1.080419 0.488124 3.689518 0.391537 -0.313723 -1.182807 -0.797175 -0.732856 -0.210466 -0.026883 1.566646 -0.061674 -0.473349 -2.641171 -2.033354 -1.157381 0.484697 0.648081 -0.066130 2.171780 -0.562251 0.903035 0.752748
long -1.036033 -1.015162 -0.272940 0.086946 -0.612538 -0.082350 0.361690 2.225036 0.640896 1.176060 0.352638 2.253496 -0.647570 -1.370589 2.445427 -1.389835 1.053386 0.441283 -1.745903 0.692002 -1.878917 1.660653 -0.881094 1.601287 0.700257 0.438979 -1.141990 -1.503448 -1.482719 1.389420 1.998570 1.172529 -2.098462 1.285130 0.823174 1.052984 -1.633179 1.090437 0.952414 1.094670 0.330691 -1.140151 1.586673 -0.850417 -1.635771 -0.805534 -0.353721 1.309674 -1.278599 -0.291258
country 0.430360 -1.032176 -1.418698 2.087594 -0.170063 -1.328306 0.511615 3.515302 1.042022 0.560161 -1.002548 0.984547 -0.256396 -0.359254 0.018925 3.051740 0.713380 0.205481 -1.054819 0.887055 1.604389 0.452938 -0.811773 1.631500 0.212516 -1.536633 0.834258 -2.842852 1.705388 -1.652509 -0.212969 0.945305 -1.359023 -0.785741 -1.656663 -0.886391 0.789622 1.304227 -2.137857 0.485090 -2.094240 -0.144811 -0.673506 -0.684682 0.406345 0.628614 0.806027 -0.047667 -1.928225 2.244889
king 1.981596 2.209842 2.677186 0.421902 0.655407 1.610681 -3.154468 -1.611086 -0.302467 1.462340 -2.690594 -0.591208 0.688355 -1.802567 0.323627 0.424875 -1.619198 0.381383 0.707002 -1.010862 -0.209115 0.283806 1.270638 0.530200 0.970909 2.284460 0.377130 -0.038102 -0.822367 -0.465078 -1.535691 0.155523 -2.172269 -4.697714 4.212852 0.637357 0.455603 -1.697415 -0.226155 -1.222877 0.253479 -0.492513 -0.287411 0.007015 -0.579880 -1.428638 -1.358561 0.515189 -4.537704 -2.301442
law 0.231845 -1.432192 0.548936 0.291465 2.658704 -1.215537 1.999293 -1.798783 -1.592040 1.488338 -1.315781 -2.382391 0.312502 -0.057019 -1.267591 1.784730 -1.249369 1.309851 2.452054 2.039280 -0.591867 -3.064541 0.187378 -0.387159 0.129892 3.190736 5.134380 -0.409065 0.112428 -0.659512 -2.718743 0.982109 -0.161922 -1.479724 0.141361 1.587728 -0.985595 -0.937289 0.094848 -1.606999 1.023652 -3.908427 -1.158342 0.572474 1.305528 -0.605853 1.352660 -0.057187 0.976978 1.823902
group 2.106580 0.807797 -0.221419 -0.017823 0.574676 -2.112856 3.064391 -1.434370 2.568813 -2.045827 -0.740780 0.475710 -0.091666 -0.346179 -1.906899 -1.461996 0.334689 -0.715153 0.133853 1.169605 0.730864 -0.656193 1.085307 -1.694617 1.484073 -0.053034 -1.869180 -0.416694 1.049509 1.048948 -0.979501 -0.182591 -1.194484 0.678874 -0.810266 -0.696755 2.535980 1.617942 -3.742132 0.869104 0.974716 0.790426 0.857625 -0.881978 0.013252 0.546864 0.059202 1.180934 3.555555 1.973865
film -0.228568 -0.749073 0.947078 1.670870 -1.424882 -0.074271 -2.011235 -1.078207 -0.245491 -0.939541 -1.667181 -0.364067 -1.067757 1.517354 2.506798 -2.987155 1.087322 -0.865104 -3.485920 -2.383927 2.227547 -1.111760 0.370783 -0.033191 -1.099189 -0.899943 -1.508268 0.210487 -1.483121 -1.546371 -1.133371 -1.221565 0.130362 1.946119 2.590527 -0.925202 -0.095568 0.501864 -1.362484 2.021073 0.925242 2.944485 1.293018 -2.871251 -3.083474 -2.634531 0.894403 -2.230614 -3.308189 1.448905
still 0.237778 -1.794458 0.814038 -0.013998 -1.768809 -1.832332 1.158830 2.798329 -2.295771 0.475990 0.524155 2.243612 2.096950 0.352048 0.553128 -0.239275 0.705047 0.668657 0.461393 0.934376 -0.401098 0.517077 0.152026 0.559633 -0.146216 -0.354472 -0.146368 1.891455 1.185406 0.456233 -0.916403 -1.684161 0.705302 -0.833359 -1.517509 -0.989159 -1.395199 -0.912503 1.295433 -1.039212 -0.103172 0.517528 -1.739927 0.604310 -0.758236 0.387129 -1.844035 0.067708 -1.392946 0.816424
series -0.116112 -0.378069 1.213760 0.104971 0.302803 2.938646 -1.462201 -1.516405 0.573853 -1.554011 -0.283056 -1.918317 -0.773532 0.632352 2.604783 -1.184857 -0.683740 -2.174852 -2.570827 -0.946726 2.774969 -2.121226 -0.633439 -1.427390 0.504295 -0.671129 -3.187530 -0.450661 -0.557677 0.392489 -0.114768 -1.791609 0.906834 1.465812 1.501819 -1.253101 -0.834524 0.949852 -0.679394 3.100848 2.778225 1.922152 1.754265 -0.141304 -0.502058 -1.379093 -0.357026 0.433049 -2.877661 0.928443
until 0.966741 -1.248554 0.030362 -0.790445 0.584951 -1.204611 -1.845893 -0.352461 -3.380766 -1.325735 -0.132871 1.590583 1.157767 -1.036057 -0.944837 1.144073 -0.419519 -2.472637 0.764327 -2.452385 0.937569 -0.099669 -1.015007 1.133487 1.110967 1.074118 -2.115826 -2.655021 -2.169742 -2.056662 0.725024 1.717757 -1.792815 -1.345134 -2.405478 -1.323169 -0.085432 -1.351329 1.711650 0.528289 -1.770225 -1.526738 -0.808596 0.267807 1.730353 1.122068 0.415117 -2.282506 -1.766229 -3.985468
north 2.558432 0.033481 1.557078 1.273974 -1.575864 1.407229 0.687972 3.269227 1.819188 1.411350 -0.830895 0.194139 2.354614 -3.140663 -1.582966 1.017413 -2.038831 0.337056 -1.979160 -1.689727 1.429121 -1.053221 1.369220 1.814349 -3.865481 -2.381707 0.624635 0.367142 2.387894 -2.736349 2.160473 0.603654 -2.963777 -0.275206 -2.525618 4.198764 0.639035 0.307197 -3.309037 2.009132 0.653675 2.766304 -1.106384 2.212671 0.570174 0.703983 -0.502725 0.554860 -0.709366 -1.391122
international -0.342736 -0.928439 -2.051341 -1.151536 0.908252 0.601364 0.935108 0.166605 1.603198 0.096343 1.580608 -0.574734 -1.196919 0.297273 -1.820336 0.919914 -0.254838 0.095879 1.079978 2.055945 1.844907 -2.115342 -2.441996 -0.211347 -1.684965 -0.476307 2.250979 -1.127356 2.164676 -2.722472 -1.648850 0.404883 -0.015740 0.683626 -1.408488 2.178032 -1.454117 0.171241 -2.719410 0.995674 1.182525 -0.823487 1.046340 -1.495725 0.274717 -1.338768 4.403193 0.267757 0.458713 2.216717
term 0.659646 -0.449888 -0.570300 0.076590 1.439337 -3.101828 0.711510 0.561858 -2.132927 1.766086 1.421920 3.545511 -0.236219 1.406887 0.682962 1.296876 2.126934 1.712100 -2.598895 -0.451515 0.565527 0.377464 -1.763923 -0.266353 -1.450238 1.788341 1.255851 1.222335 -0.422736 2.401178 0.202927 -1.273622 -3.117718 1.531450 0.983028 1.315505 -0.020907 -0.920845 -1.853667 0.946107 3.985219 -2.789701 1.065336 -0.733438 -0.260081 -1.680188 -1.469391 1.565841 2.149595 2.613678
we -0.367959 -1.272559 0.345733 1.925937 -3.246948 1.182546 4.437933 -0.057549 -1.377693 -2.815954 -1.244687 -0.817029 -0.326257 -0.614466 -0.950366 0.541200 2.255857 2.005019 1.375602 -1.926968 -3.609439 2.179204 -0.753548 -0.801762 1.476021 2.625865 1.111910 -2.994404 0.911781 3.602621 -0.794493 -2.081697 1.209244 -0.959291 3.253569 -4.828733 -1.158986 -1.288178 3.041373 -0.772632 -0.909576 2.908957 0.096328 -0.857879 2.065951 0.758665 0.299993 2.920719 3.899289 -2.434838
end 0.378454 0.165885 -1.373122 1.335806 -2.336667 -1.039176 -2.178162 -0.641962 -1.408244 -1.658128 -1.580349 1.509174 0.569261 -2.864300 0.837222 2.327777 -2.892723 0.125546 -0.253859 -1.661848 0.971362 1.278710 0.230310 1.680110 -0.008885 0.537468 -2.240305 -0.204319 -2.039954 1.027163 1.587782 0.000802 0.686918 -0.237565 -1.016134 0.589432 -2.905100 -1.143379 0.464529 1.822698 -1.330423 0.742938 0.432494 1.680086 1.436263 0.282016 1.460008 2.778057 -0.356312 -1.987058
book -2.162938 -1.802689 1.745499 3.431428 0.554247 1.819476 -1.058096 -2.829553 -1.244943 -0.100602 -0.260224 -3.940283 0.223050 2.146826 0.116378 1.323158 -0.927380 -1.246725 -1.187085 -1.045050 -1.181516 -0.713677 2.308475 -1.261103 -0.354793 0.963050 -0.736323 -0.477440 -1.997020 -0.751788 -1.548102 -2.993922 -0.315235 0.447128 0.855981 -1.144761 1.594309 -0.792918 0.147850 0.566208 4.177659 0.587605 2.663763 -0.570550 -1.023469 -1.009583 -2.372681 0.119806 -2.715641 0.865235
found -1.103010 -1.848893 1.573180 2.430834 -0.007475 1.558563 1.220397 -1.210017 -0.337493 -0.258477 0.551662 -0.718408 0.647760 -0.534156 -0.345871 -2.536392 0.446241 0.102652 -0.674107 -0.201500 -1.075850 0.482524 -0.872214 2.677885 -0.661887 -1.064419 -0.149174 1.512614 -1.413589 0.615421 -0.644201 0.774986 0.964173 -1.940265 -2.073661 0.347642 -0.606595 0.544882 -0.638927 -1.400778 0.811451 1.549333 -1.182938 1.699111 -0.124027 1.389385 -1.908701 0.727456 1.423119 0.152833
own -3.096536 -0.187045 1.036215 -1.710151 -2.430904 -3.602188 0.422646 -1.931643 -2.237448 -1.150962 1.400794 -1.162849 1.861406 0.954454 0.899275 -2.472006 0.726049 1.146055 0.588907 0.146742 -0.228174 1.675976 0.019883 -2.310950 -0.479923 0.726840 -0.539374 -3.507323 -1.020443 0.582196 -0.362804 2.003578 0.323369 -1.765872 -0.377062 -2.495109 4.995862 2.513489 1.320104 -2.395031 -0.400581 -3.281391 1.040448 1.690853 -0.135474 -0.264555 0.470028 1.868469 -2.495444 0.089728
political -1.715323 1.213546 0.228403 -0.875865 0.675220 0.399726 -1.110598 1.407418 0.313030 1.965337 0.106384 1.386455 0.506410 -0.214749 -0.659738 0.649911 -0.242481 1.481788 2.163700 1.976617 2.379923 -0.326986 0.303881 -0.207192 0.293532 2.311514 0.724297 -1.064021 -1.683059 -0.921168 -0.165179 -0.483407 -1.344896 -0.383780 -1.700079 -1.043953 0.829702 2.576138 -1.465845 -2.039200 -2.014711 -3.955023 -0.221691 -2.471568 1.212924 -1.958415 1.211360 0.160453 1.460449 4.490319
party 0.454425 3.532539 -0.761729 -1.877940 0.115033 -3.310964 -1.419662 1.531415 0.654590 0.599669 -3.420452 2.460336 -0.283717 -0.818233 1.172241 0.647955 0.563152 -0.752407 1.398364 1.042251 4.372231 -2.575729 -1.551773 -0.968085 0.298113 1.772586 -0.418535 -0.993224 -1.034166 1.597842 -1.650177 0.289692 -2.415901 -2.085923 -2.457665 -1.023959 2.421520 2.929328 -2.197023 -1.009771 -1.040496 -2.589212 0.218821 -4.031547 2.245426 -0.166156 1.211121 1.188334 0.523947 2.655802
order 1.520286 -1.099286 0.291500 -0.509756 2.365962 -1.042364 1.014298 -1.006166 -0.056465 0.341118 -0.278727 -0.292812 0.889531 -0.329823 -0.638581 0.146569 0.886604 1.280866 -0.690224 -1.395366 -1.191346 -1.154302 1.109861 -0.812640 0.375773 1.536010 -0.039600 -0.776327 -0.644638 2.327257 -0.823503 0.564219 1.478194 -0.695754 -0.426094 -0.424200 0.048467 -0.344967 -1.422166 -3.329105 1.211897 -0.844124 -0.489814 2.338238 2.172113 0.091650 0.915165 0.605173 1.826584 0.091993
usually 0.692677 0.276810 -3.050716 0.158075 -0.650670 -2.090424 2.768590 0.367243 -1.116415 -0.550338 0.150269 1.275134 1.086434 -0.966854 2.863114 -1.645645 1.389438 0.786823 -1.056285 0.634293 -0.763231 -0.995343 0.538439 -0.360791 1.633639 0.584297 0.893940 2.663387 0.097767 3.216777 1.581484 0.303929 1.197044 0.868579 -1.066250 1.672550 -0.342356 -0.065368 0.298739 1.113159 1.388800 -0.441021 -0.558352 0.953184 -1.779109 0.680155 -2.513921 2.290129 1.400473 2.036930
president 2.067358 1.457319 0.342887 -1.187440 0.774714 -2.704570 -2.409953 -0.589646 1.806831 1.247644 -1.769445 1.253269 0.774457 -1.504291 0.761728 2.524773 -0.330131 0.259999 -0.862410 -0.412536 1.050692 -3.104526 -0.832524 0.426542 -0.517556 1.139483 1.224920 -1.570913 -0.366190 1.699246 -3.006478 0.936477 -3.330070 -4.244033 0.675964 1.356743 -0.315809 1.399793 -1.490385 -2.351724 -1.384549 0.158639 1.605161 -7.388787 1.836379 -2.051119 2.965708 -0.913385 -0.934121 0.072717
church -1.384322 0.946443 -0.128592 0.667970 0.007807 -0.769872 -0.129097 -1.424844 0.234243 -0.376752 -2.265301 -0.481665 0.016502 0.982614 -0.362578 2.463769 -2.361037 1.276422 2.326862 0.530002 -0.235105 1.434692 0.392264 -0.569103 -0.833848 3.071544 -0.174341 1.691216 -0.806963 -1.546388 1.146893 -0.942876 -3.239443 -4.963337 -1.003204 1.247620 1.839104 -1.996051 -2.793742 -3.503614 2.490582 -1.304708 -1.506713 -1.052363 1.809362 1.174142 -2.186271 2.682367 -0.675184 0.653260
you -0.947510 0.266599 -1.496544 3.181740 -3.854924 1.706809 2.813384 0.704633 -0.877920 -2.349806 -3.017335 1.098786 0.307153 -1.386519 -0.775283 -0.921172 4.392359 0.283752 -1.309875 -1.422857 -2.366281 -0.124723 -0.946550 1.541465 2.073768 0.353426 1.968986 -3.736811 -0.091763 1.667283 -0.920944 -1.083084 2.679295 -0.394398 6.288740 -2.664098 0.701379 -2.046315 3.766584 -0.862154 -0.212589 2.641138 -2.462007 -1.203660 0.349716 1.720563 -0.531098 4.276762 0.844406 -4.255007
death -1.858424 -0.399745 -0.555643 2.097689 0.744481 0.902122 -2.807126 -3.945841 -2.283565 1.666727 -2.516558 0.416474 2.092780 -0.461956 0.413919 0.349315 -1.690629 -2.234188 0.233270 -1.017297 -2.203730 -0.169857 -0.823969 1.288594 1.413445 0.495234 -1.480131 -0.023124 -1.403356 -0.148279 -0.210231 -0.954430 -1.069201 -5.097653 1.163708 0.741347 -0.917076 2.821253 1.557501 -0.674599 -1.494816 -2.499052 0.282390 -1.423886 -0.454180 1.065282 -0.444796 -0.375237 -2.575741 0.472139
theory -1.370034 -1.298630 2.247205 1.442120 1.418149 0.081914 1.212792 -0.123610 -1.119231 0.788761 0.618339 -3.677101 -0.619940 3.358596 -0.958460 -0.032816 -1.000262 1.291931 0.385126 -0.341870 -1.094929 -0.266495 2.599756 -2.047212 -0.078914 2.947845 -0.420171 -0.613916 -1.717660 2.049664 -2.699447 -3.235557 0.543223 2.505452 -0.959374 -0.954050 -0.455559 2.640534 -0.460639 0.988123 -0.356741 1.419091 0.006237 -0.588717 0.417731 -1.599809 -1.055375 -1.450195 5.015914 1.702478
